#pragma once
#include <cstdarg>
namespace Eloquent {
    namespace ML {
        namespace Port {
            class RandomForest {
                public:
                    /**
                    * Predict class for features vector
                    */
                    int predict(float *x) {
                        uint8_t votes[6] = { 0 };
                        // tree #1
                        if (x[0] <= 2.325000047683716) {
                            votes[3] += 1;
                        }

                        else {
                            if (x[6] <= 3.609999895095825) {
                                votes[4] += 1;
                            }

                            else {
                                if (x[3] <= 14.59000015258789) {
                                    if (x[10] <= -5.934999942779541) {
                                        if (x[7] <= 5.265000104904175) {
                                            if (x[3] <= 8.454999923706055) {
                                                if (x[7] <= 1.3399999737739563) {
                                                    votes[2] += 1;
                                                }

                                                else {
                                                    votes[1] += 1;
                                                }
                                            }

                                            else {
                                                votes[0] += 1;
                                            }
                                        }

                                        else {
                                            if (x[0] <= 11.529999732971191) {
                                                votes[1] += 1;
                                            }

                                            else {
                                                votes[5] += 1;
                                            }
                                        }
                                    }

                                    else {
                                        if (x[8] <= -8.914999961853027) {
                                            if (x[0] <= 12.15999984741211) {
                                                votes[2] += 1;
                                            }

                                            else {
                                                if (x[11] <= -11.474999904632568) {
                                                    votes[2] += 1;
                                                }

                                                else {
                                                    votes[0] += 1;
                                                }
                                            }
                                        }

                                        else {
                                            if (x[4] <= 0.7949999868869781) {
                                                if (x[9] <= 10.889999866485596) {
                                                    if (x[8] <= -4.484999895095825) {
                                                        votes[2] += 1;
                                                    }

                                                    else {
                                                        votes[1] += 1;
                                                    }
                                                }

                                                else {
                                                    votes[1] += 1;
                                                }
                                            }

                                            else {
                                                if (x[7] <= 6.2799999713897705) {
                                                    if (x[6] <= 12.785000324249268) {
                                                        if (x[1] <= -2.7800000309944153) {
                                                            votes[5] += 1;
                                                        }

                                                        else {
                                                            votes[2] += 1;
                                                        }
                                                    }

                                                    else {
                                                        votes[0] += 1;
                                                    }
                                                }

                                                else {
                                                    if (x[8] <= 3.2149999141693115) {
                                                        votes[1] += 1;
                                                    }

                                                    else {
                                                        votes[5] += 1;
                                                    }
                                                }
                                            }
                                        }
                                    }
                                }

                                else {
                                    if (x[9] <= 7.144999980926514) {
                                        votes[0] += 1;
                                    }

                                    else {
                                        votes[5] += 1;
                                    }
                                }
                            }
                        }

                        // tree #2
                        if (x[9] <= 3.1700000762939453) {
                            if (x[0] <= 5.065000057220459) {
                                votes[3] += 1;
                            }

                            else {
                                votes[2] += 1;
                            }
                        }

                        else {
                            if (x[0] <= 15.015000343322754) {
                                if (x[7] <= 5.669999837875366) {
                                    if (x[5] <= -3.2949999570846558) {
                                        if (x[8] <= -8.914999961853027) {
                                            if (x[7] <= -3.2549999952316284) {
                                                if (x[9] <= 11.555000305175781) {
                                                    votes[2] += 1;
                                                }

                                                else {
                                                    votes[0] += 1;
                                                }
                                            }

                                            else {
                                                if (x[0] <= 12.259999752044678) {
                                                    votes[2] += 1;
                                                }

                                                else {
                                                    votes[0] += 1;
                                                }
                                            }
                                        }

                                        else {
                                            if (x[11] <= -10.654999732971191) {
                                                if (x[5] <= -10.599999904632568) {
                                                    votes[0] += 1;
                                                }

                                                else {
                                                    votes[2] += 1;
                                                }
                                            }

                                            else {
                                                if (x[4] <= 0.20499999821186066) {
                                                    if (x[10] <= -5.664999961853027) {
                                                        votes[0] += 1;
                                                    }

                                                    else {
                                                        if (x[9] <= 15.089999675750732) {
                                                            votes[2] += 1;
                                                        }

                                                        else {
                                                            votes[5] += 1;
                                                        }
                                                    }
                                                }

                                                else {
                                                    if (x[7] <= 4.7900002002716064) {
                                                        if (x[6] <= 13.865000247955322) {
                                                            if (x[9] <= 13.900000095367432) {
                                                                if (x[7] <= 3.209999918937683) {
                                                                    votes[2] += 1;
                                                                }

                                                                else {
                                                                    if (x[1] <= -4.319999933242798) {
                                                                        votes[1] += 1;
                                                                    }

                                                                    else {
                                                                        if (x[9] <= 8.440000176429749) {
                                                                            votes[3] += 1;
                                                                        }

                                                                        else {
                                                                            votes[0] += 1;
                                                                        }
                                                                    }
                                                                }
                                                            }

                                                            else {
                                                                votes[5] += 1;
                                                            }
                                                        }

                                                        else {
                                                            if (x[9] <= 18.890000343322754) {
                                                                votes[0] += 1;
                                                            }

                                                            else {
                                                                votes[5] += 1;
                                                            }
                                                        }
                                                    }

                                                    else {
                                                        if (x[8] <= 0.5749999284744263) {
                                                            if (x[1] <= -5.6549999713897705) {
                                                                votes[1] += 1;
                                                            }

                                                            else {
                                                                votes[0] += 1;
                                                            }
                                                        }

                                                        else {
                                                            if (x[2] <= -0.6350001096725464) {
                                                                votes[5] += 1;
                                                            }

                                                            else {
                                                                votes[3] += 1;
                                                            }
                                                        }
                                                    }
                                                }
                                            }
                                        }
                                    }

                                    else {
                                        votes[4] += 1;
                                    }
                                }

                                else {
                                    if (x[6] <= 10.244999885559082) {
                                        votes[1] += 1;
                                    }

                                    else {
                                        if (x[3] <= 13.429999828338623) {
                                            votes[1] += 1;
                                        }

                                        else {
                                            votes[5] += 1;
                                        }
                                    }
                                }
                            }

                            else {
                                if (x[8] <= -0.7200000286102295) {
                                    votes[0] += 1;
                                }

                                else {
                                    votes[5] += 1;
                                }
                            }
                        }

                        // tree #3
                        if (x[3] <= 14.59000015258789) {
                            if (x[7] <= 6.224999904632568) {
                                if (x[6] <= 4.210000038146973) {
                                    votes[4] += 1;
                                }

                                else {
                                    if (x[2] <= -1.7299999594688416) {
                                        if (x[9] <= 9.765000343322754) {
                                            if (x[10] <= -7.050000190734863) {
                                                if (x[0] <= 9.429999828338623) {
                                                    votes[1] += 1;
                                                }

                                                else {
                                                    votes[0] += 1;
                                                }
                                            }

                                            else {
                                                votes[2] += 1;
                                            }
                                        }

                                        else {
                                            if (x[6] <= 12.425000190734863) {
                                                if (x[3] <= 9.675000190734863) {
                                                    votes[2] += 1;
                                                }

                                                else {
                                                    votes[5] += 1;
                                                }
                                            }

                                            else {
                                                votes[0] += 1;
                                            }
                                        }
                                    }

                                    else {
                                        if (x[1] <= -0.4450000077486038) {
                                            if (x[6] <= 13.800000190734863) {
                                                votes[3] += 1;
                                            }

                                            else {
                                                votes[0] += 1;
                                            }
                                        }

                                        else {
                                            votes[3] += 1;
                                        }
                                    }
                                }
                            }

                            else {
                                if (x[9] <= 12.90500020980835) {
                                    if (x[10] <= 2.0199999511241913) {
                                        votes[1] += 1;
                                    }

                                    else {
                                        votes[3] += 1;
                                    }
                                }

                                else {
                                    if (x[5] <= -6.995000123977661) {
                                        votes[1] += 1;
                                    }

                                    else {
                                        votes[5] += 1;
                                    }
                                }
                            }
                        }

                        else {
                            if (x[10] <= 3.225000023841858) {
                                votes[5] += 1;
                            }

                            else {
                                votes[0] += 1;
                            }
                        }

                        // tree #4
                        if (x[7] <= 6.434999942779541) {
                            if (x[9] <= 3.1850000619888306) {
                                if (x[11] <= -7.56499981880188) {
                                    votes[2] += 1;
                                }

                                else {
                                    votes[3] += 1;
                                }
                            }

                            else {
                                if (x[6] <= 3.609999895095825) {
                                    votes[4] += 1;
                                }

                                else {
                                    if (x[8] <= 0.5649999976158142) {
                                        if (x[6] <= 14.644999980926514) {
                                            if (x[7] <= 5.419999837875366) {
                                                if (x[11] <= -5.849999904632568) {
                                                    if (x[0] <= 12.480000019073486) {
                                                        votes[2] += 1;
                                                    }

                                                    else {
                                                        votes[0] += 1;
                                                    }
                                                }

                                                else {
                                                    votes[1] += 1;
                                                }
                                            }

                                            else {
                                                votes[1] += 1;
                                            }
                                        }

                                        else {
                                            if (x[3] <= 7.954999923706055) {
                                                votes[2] += 1;
                                            }

                                            else {
                                                votes[0] += 1;
                                            }
                                        }
                                    }

                                    else {
                                        if (x[0] <= 6.059999868273735) {
                                            votes[3] += 1;
                                        }

                                        else {
                                            votes[5] += 1;
                                        }
                                    }
                                }
                            }
                        }

                        else {
                            if (x[5] <= -5.634999990463257) {
                                if (x[1] <= 1.4049999713897705) {
                                    if (x[2] <= -0.7899999916553497) {
                                        if (x[11] <= 4.360000133514404) {
                                            votes[1] += 1;
                                        }

                                        else {
                                            votes[5] += 1;
                                        }
                                    }

                                    else {
                                        votes[3] += 1;
                                    }
                                }

                                else {
                                    if (x[5] <= -8.675000190734863) {
                                        votes[3] += 1;
                                    }

                                    else {
                                        votes[1] += 1;
                                    }
                                }
                            }

                            else {
                                votes[5] += 1;
                            }
                        }

                        // tree #5
                        if (x[7] <= 6.434999942779541) {
                            if (x[8] <= -1.5649999976158142) {
                                if (x[4] <= 0.4650000035762787) {
                                    if (x[8] <= -5.054999828338623) {
                                        if (x[5] <= -10.764999866485596) {
                                            votes[0] += 1;
                                        }

                                        else {
                                            votes[2] += 1;
                                        }
                                    }

                                    else {
                                        votes[4] += 1;
                                    }
                                }

                                else {
                                    if (x[6] <= 12.99500036239624) {
                                        if (x[11] <= -6.5) {
                                            votes[2] += 1;
                                        }

                                        else {
                                            if (x[5] <= -5.540000081062317) {
                                                votes[1] += 1;
                                            }

                                            else {
                                                votes[4] += 1;
                                            }
                                        }
                                    }

                                    else {
                                        votes[0] += 1;
                                    }
                                }
                            }

                            else {
                                if (x[6] <= 4.230000019073486) {
                                    votes[4] += 1;
                                }

                                else {
                                    if (x[2] <= -0.014999999664723873) {
                                        if (x[9] <= 5.594999849796295) {
                                            votes[3] += 1;
                                        }

                                        else {
                                            votes[5] += 1;
                                        }
                                    }

                                    else {
                                        if (x[3] <= 12.679999828338623) {
                                            votes[3] += 1;
                                        }

                                        else {
                                            votes[5] += 1;
                                        }
                                    }
                                }
                            }
                        }

                        else {
                            if (x[11] <= 4.360000133514404) {
                                if (x[7] <= 6.484999895095825) {
                                    if (x[9] <= 4.249999940395355) {
                                        votes[3] += 1;
                                    }

                                    else {
                                        votes[1] += 1;
                                    }
                                }

                                else {
                                    if (x[7] <= 7.115000009536743) {
                                        if (x[0] <= 2.280000066384673) {
                                            votes[3] += 1;
                                        }

                                        else {
                                            votes[1] += 1;
                                        }
                                    }

                                    else {
                                        votes[1] += 1;
                                    }
                                }
                            }

                            else {
                                votes[5] += 1;
                            }
                        }

                        // tree #6
                        if (x[3] <= 1.125) {
                            if (x[11] <= -4.105000019073486) {
                                votes[2] += 1;
                            }

                            else {
                                votes[4] += 1;
                            }
                        }

                        else {
                            if (x[0] <= 2.1350000500679016) {
                                votes[3] += 1;
                            }

                            else {
                                if (x[7] <= 6.43999981880188) {
                                    if (x[11] <= 3.8649998903274536) {
                                        if (x[6] <= 14.664999961853027) {
                                            if (x[11] <= -6.039999961853027) {
                                                if (x[8] <= -8.494999885559082) {
                                                    if (x[3] <= 11.404999732971191) {
                                                        if (x[8] <= -8.824999809265137) {
                                                            if (x[8] <= -9.505000114440918) {
                                                                votes[2] += 1;
                                                            }

                                                            else {
                                                                if (x[9] <= 12.080000400543213) {
                                                                    votes[2] += 1;
                                                                }

                                                                else {
                                                                    votes[0] += 1;
                                                                }
                                                            }
                                                        }

                                                        else {
                                                            if (x[3] <= 10.799999713897705) {
                                                                votes[2] += 1;
                                                            }

                                                            else {
                                                                votes[0] += 1;
                                                            }
                                                        }
                                                    }

                                                    else {
                                                        votes[0] += 1;
                                                    }
                                                }

                                                else {
                                                    if (x[4] <= 1.9450000524520874) {
                                                        votes[2] += 1;
                                                    }

                                                    else {
                                                        votes[0] += 1;
                                                    }
                                                }
                                            }

                                            else {
                                                if (x[9] <= 12.690000057220459) {
                                                    votes[1] += 1;
                                                }

                                                else {
                                                    votes[5] += 1;
                                                }
                                            }
                                        }

                                        else {
                                            if (x[0] <= 15.015000343322754) {
                                                if (x[3] <= 15.474999904632568) {
                                                    votes[0] += 1;
                                                }

                                                else {
                                                    votes[5] += 1;
                                                }
                                            }

                                            else {
                                                if (x[8] <= -0.38499999046325684) {
                                                    votes[0] += 1;
                                                }

                                                else {
                                                    votes[5] += 1;
                                                }
                                            }
                                        }
                                    }

                                    else {
                                        if (x[9] <= 7.184999942779541) {
                                            votes[0] += 1;
                                        }

                                        else {
                                            if (x[8] <= 4.320000171661377) {
                                                if (x[0] <= 11.605000019073486) {
                                                    votes[4] += 1;
                                                }

                                                else {
                                                    votes[5] += 1;
                                                }
                                            }

                                            else {
                                                if (x[3] <= 8.020000040531158) {
                                                    votes[4] += 1;
                                                }

                                                else {
                                                    votes[5] += 1;
                                                }
                                            }
                                        }
                                    }
                                }

                                else {
                                    if (x[5] <= -5.634999990463257) {
                                        if (x[10] <= -3.819999933242798) {
                                            votes[1] += 1;
                                        }

                                        else {
                                            if (x[0] <= 11.09500002861023) {
                                                votes[1] += 1;
                                            }

                                            else {
                                                votes[5] += 1;
                                            }
                                        }
                                    }

                                    else {
                                        votes[5] += 1;
                                    }
                                }
                            }
                        }

                        // tree #7
                        if (x[3] <= 14.59000015258789) {
                            if (x[4] <= 0.22500000149011612) {
                                if (x[6] <= 4.079999923706055) {
                                    votes[4] += 1;
                                }

                                else {
                                    if (x[0] <= 9.135000228881836) {
                                        if (x[10] <= -6.510000228881836) {
                                            votes[1] += 1;
                                        }

                                        else {
                                            if (x[0] <= 4.440000057220459) {
                                                votes[1] += 1;
                                            }

                                            else {
                                                if (x[7] <= 6.190000057220459) {
                                                    votes[2] += 1;
                                                }

                                                else {
                                                    votes[1] += 1;
                                                }
                                            }
                                        }
                                    }

                                    else {
                                        if (x[7] <= 8.049999952316284) {
                                            if (x[10] <= -6.0249998569488525) {
                                                votes[0] += 1;
                                            }

                                            else {
                                                votes[2] += 1;
                                            }
                                        }

                                        else {
                                            votes[1] += 1;
                                        }
                                    }
                                }
                            }

                            else {
                                if (x[2] <= -1.375) {
                                    if (x[7] <= 5.619999885559082) {
                                        if (x[0] <= 10.989999771118164) {
                                            if (x[6] <= 7.2200000286102295) {
                                                if (x[7] <= 2.0599999614059925) {
                                                    votes[4] += 1;
                                                }

                                                else {
                                                    votes[1] += 1;
                                                }
                                            }

                                            else {
                                                if (x[7] <= 3.5549999475479126) {
                                                    votes[2] += 1;
                                                }

                                                else {
                                                    votes[1] += 1;
                                                }
                                            }
                                        }

                                        else {
                                            if (x[6] <= 12.769999980926514) {
                                                if (x[5] <= -6.605000257492065) {
                                                    votes[2] += 1;
                                                }

                                                else {
                                                    votes[5] += 1;
                                                }
                                            }

                                            else {
                                                votes[0] += 1;
                                            }
                                        }
                                    }

                                    else {
                                        if (x[5] <= -5.68999981880188) {
                                            if (x[3] <= 11.829999923706055) {
                                                votes[1] += 1;
                                            }

                                            else {
                                                if (x[11] <= -5.03000009059906) {
                                                    votes[0] += 1;
                                                }

                                                else {
                                                    votes[1] += 1;
                                                }
                                            }
                                        }

                                        else {
                                            votes[5] += 1;
                                        }
                                    }
                                }

                                else {
                                    if (x[8] <= 1.2450000047683716) {
                                        votes[0] += 1;
                                    }

                                    else {
                                        votes[3] += 1;
                                    }
                                }
                            }
                        }

                        else {
                            if (x[6] <= 17.119999885559082) {
                                votes[5] += 1;
                            }

                            else {
                                votes[0] += 1;
                            }
                        }

                        // tree #8
                        if (x[3] <= 1.125) {
                            if (x[5] <= -5.105000019073486) {
                                votes[2] += 1;
                            }

                            else {
                                votes[4] += 1;
                            }
                        }

                        else {
                            if (x[3] <= 14.59499979019165) {
                                if (x[0] <= 2.2200000286102295) {
                                    votes[3] += 1;
                                }

                                else {
                                    if (x[8] <= -8.914999961853027) {
                                        if (x[9] <= 11.865000247955322) {
                                            if (x[10] <= -7.590000152587891) {
                                                votes[1] += 1;
                                            }

                                            else {
                                                votes[2] += 1;
                                            }
                                        }

                                        else {
                                            votes[0] += 1;
                                        }
                                    }

                                    else {
                                        if (x[8] <= -2.4550000429153442) {
                                            if (x[7] <= 5.619999885559082) {
                                                if (x[6] <= 14.739999771118164) {
                                                    if (x[10] <= -3.5449999570846558) {
                                                        if (x[6] <= 13.074999809265137) {
                                                            if (x[1] <= -2.809999942779541) {
                                                                votes[1] += 1;
                                                            }

                                                            else {
                                                                votes[2] += 1;
                                                            }
                                                        }

                                                        else {
                                                            votes[0] += 1;
                                                        }
                                                    }

                                                    else {
                                                        if (x[9] <= 12.059999942779541) {
                                                            votes[2] += 1;
                                                        }

                                                        else {
                                                            votes[0] += 1;
                                                        }
                                                    }
                                                }

                                                else {
                                                    votes[0] += 1;
                                                }
                                            }

                                            else {
                                                votes[1] += 1;
                                            }
                                        }

                                        else {
                                            if (x[3] <= 13.099999904632568) {
                                                if (x[11] <= 5.955000042915344) {
                                                    votes[1] += 1;
                                                }

                                                else {
                                                    votes[4] += 1;
                                                }
                                            }

                                            else {
                                                if (x[8] <= 0.5699999928474426) {
                                                    votes[0] += 1;
                                                }

                                                else {
                                                    votes[5] += 1;
                                                }
                                            }
                                        }
                                    }
                                }
                            }

                            else {
                                if (x[9] <= 7.204999923706055) {
                                    votes[0] += 1;
                                }

                                else {
                                    votes[5] += 1;
                                }
                            }
                        }

                        // tree #9
                        if (x[6] <= 3.609999895095825) {
                            votes[4] += 1;
                        }

                        else {
                            if (x[7] <= 6.474999904632568) {
                                if (x[3] <= 14.769999980926514) {
                                    if (x[8] <= 3.8849998712539673) {
                                        if (x[0] <= 11.454999923706055) {
                                            if (x[8] <= -6.509999990463257) {
                                                if (x[1] <= -5.5950000286102295) {
                                                    if (x[6] <= 9.309999942779541) {
                                                        votes[1] += 1;
                                                    }

                                                    else {
                                                        votes[2] += 1;
                                                    }
                                                }

                                                else {
                                                    votes[2] += 1;
                                                }
                                            }

                                            else {
                                                if (x[0] <= 7.18999981880188) {
                                                    votes[1] += 1;
                                                }

                                                else {
                                                    votes[0] += 1;
                                                }
                                            }
                                        }

                                        else {
                                            if (x[6] <= 13.025000095367432) {
                                                if (x[8] <= -2.3949999809265137) {
                                                    votes[2] += 1;
                                                }

                                                else {
                                                    votes[5] += 1;
                                                }
                                            }

                                            else {
                                                votes[0] += 1;
                                            }
                                        }
                                    }

                                    else {
                                        votes[3] += 1;
                                    }
                                }

                                else {
                                    votes[5] += 1;
                                }
                            }

                            else {
                                if (x[9] <= 12.90500020980835) {
                                    if (x[0] <= 1.170000046491623) {
                                        votes[3] += 1;
                                    }

                                    else {
                                        votes[1] += 1;
                                    }
                                }

                                else {
                                    if (x[8] <= 2.1049999594688416) {
                                        votes[1] += 1;
                                    }

                                    else {
                                        votes[5] += 1;
                                    }
                                }
                            }
                        }

                        // tree #10
                        if (x[3] <= 1.1349999904632568) {
                            if (x[6] <= 5.179999828338623) {
                                votes[4] += 1;
                            }

                            else {
                                votes[2] += 1;
                            }
                        }

                        else {
                            if (x[7] <= 6.434999942779541) {
                                if (x[0] <= 3.0950000286102295) {
                                    votes[3] += 1;
                                }

                                else {
                                    if (x[3] <= 14.650000095367432) {
                                        if (x[4] <= 0.4650000035762787) {
                                            if (x[8] <= -8.635000228881836) {
                                                votes[2] += 1;
                                            }

                                            else {
                                                if (x[6] <= 15.285000324249268) {
                                                    if (x[11] <= 0.039999961853027344) {
                                                        votes[2] += 1;
                                                    }

                                                    else {
                                                        votes[4] += 1;
                                                    }
                                                }

                                                else {
                                                    votes[0] += 1;
                                                }
                                            }
                                        }

                                        else {
                                            if (x[11] <= -10.765000343322754) {
                                                votes[2] += 1;
                                            }

                                            else {
                                                if (x[9] <= 8.954999923706055) {
                                                    if (x[6] <= 14.450000286102295) {
                                                        if (x[1] <= -4.519999980926514) {
                                                            votes[1] += 1;
                                                        }

                                                        else {
                                                            votes[2] += 1;
                                                        }
                                                    }

                                                    else {
                                                        votes[0] += 1;
                                                    }
                                                }

                                                else {
                                                    if (x[6] <= 12.40500020980835) {
                                                        if (x[5] <= -6.895000219345093) {
                                                            votes[2] += 1;
                                                        }

                                                        else {
                                                            votes[5] += 1;
                                                        }
                                                    }

                                                    else {
                                                        votes[0] += 1;
                                                    }
                                                }
                                            }
                                        }
                                    }

                                    else {
                                        if (x[8] <= 0.8499999642372131) {
                                            votes[0] += 1;
                                        }

                                        else {
                                            votes[5] += 1;
                                        }
                                    }
                                }
                            }

                            else {
                                if (x[0] <= 11.484999656677246) {
                                    if (x[10] <= 2.3350000083446503) {
                                        votes[1] += 1;
                                    }

                                    else {
                                        votes[3] += 1;
                                    }
                                }

                                else {
                                    votes[5] += 1;
                                }
                            }
                        }

                        // tree #11
                        if (x[7] <= 6.424999952316284) {
                            if (x[11] <= -4.980000019073486) {
                                if (x[1] <= -3.534999966621399) {
                                    if (x[9] <= 9.565000057220459) {
                                        if (x[2] <= -6.484999895095825) {
                                            votes[2] += 1;
                                        }

                                        else {
                                            if (x[4] <= 0.345000009983778) {
                                                votes[2] += 1;
                                            }

                                            else {
                                                votes[0] += 1;
                                            }
                                        }
                                    }

                                    else {
                                        if (x[11] <= -10.545000076293945) {
                                            if (x[1] <= -4.575000047683716) {
                                                votes[0] += 1;
                                            }

                                            else {
                                                votes[2] += 1;
                                            }
                                        }

                                        else {
                                            if (x[8] <= -9.184999942779541) {
                                                if (x[6] <= 12.34000015258789) {
                                                    votes[2] += 1;
                                                }

                                                else {
                                                    votes[0] += 1;
                                                }
                                            }

                                            else {
                                                if (x[1] <= -3.7050000429153442) {
                                                    if (x[0] <= 10.724999904632568) {
                                                        votes[2] += 1;
                                                    }

                                                    else {
                                                        votes[0] += 1;
                                                    }
                                                }

                                                else {
                                                    if (x[10] <= -0.32500000298023224) {
                                                        if (x[3] <= 7.2149999141693115) {
                                                            votes[2] += 1;
                                                        }

                                                        else {
                                                            votes[0] += 1;
                                                        }
                                                    }

                                                    else {
                                                        if (x[0] <= 11.300000190734863) {
                                                            votes[2] += 1;
                                                        }

                                                        else {
                                                            votes[0] += 1;
                                                        }
                                                    }
                                                }
                                            }
                                        }
                                    }
                                }

                                else {
                                    if (x[9] <= 10.949999809265137) {
                                        votes[2] += 1;
                                    }

                                    else {
                                        if (x[6] <= 10.705000162124634) {
                                            votes[2] += 1;
                                        }

                                        else {
                                            votes[0] += 1;
                                        }
                                    }
                                }
                            }

                            else {
                                if (x[0] <= 12.295000076293945) {
                                    if (x[9] <= 3.825000047683716) {
                                        votes[3] += 1;
                                    }

                                    else {
                                        if (x[5] <= -4.059999942779541) {
                                            if (x[4] <= 3.799999952316284) {
                                                votes[1] += 1;
                                            }

                                            else {
                                                votes[0] += 1;
                                            }
                                        }

                                        else {
                                            votes[4] += 1;
                                        }
                                    }
                                }

                                else {
                                    votes[5] += 1;
                                }
                            }
                        }

                        else {
                            if (x[9] <= 12.90500020980835) {
                                if (x[7] <= 6.484999895095825) {
                                    if (x[3] <= 6.484999895095825) {
                                        votes[3] += 1;
                                    }

                                    else {
                                        votes[1] += 1;
                                    }
                                }

                                else {
                                    if (x[2] <= -0.8350000232458115) {
                                        votes[1] += 1;
                                    }

                                    else {
                                        votes[3] += 1;
                                    }
                                }
                            }

                            else {
                                if (x[8] <= 2.1149999499320984) {
                                    votes[1] += 1;
                                }

                                else {
                                    votes[5] += 1;
                                }
                            }
                        }

                        // tree #12
                        if (x[9] <= 3.1850000619888306) {
                            if (x[11] <= -7.664999842643738) {
                                votes[2] += 1;
                            }

                            else {
                                votes[3] += 1;
                            }
                        }

                        else {
                            if (x[6] <= 3.875) {
                                votes[4] += 1;
                            }

                            else {
                                if (x[6] <= 14.974999904632568) {
                                    if (x[11] <= -7.454999923706055) {
                                        if (x[9] <= 11.150000095367432) {
                                            if (x[8] <= -4.3950000405311584) {
                                                votes[2] += 1;
                                            }

                                            else {
                                                votes[1] += 1;
                                            }
                                        }

                                        else {
                                            if (x[6] <= 12.25) {
                                                votes[1] += 1;
                                            }

                                            else {
                                                votes[0] += 1;
                                            }
                                        }
                                    }

                                    else {
                                        if (x[3] <= 12.720000267028809) {
                                            votes[1] += 1;
                                        }

                                        else {
                                            votes[5] += 1;
                                        }
                                    }
                                }

                                else {
                                    if (x[3] <= 15.624999523162842) {
                                        votes[0] += 1;
                                    }

                                    else {
                                        votes[5] += 1;
                                    }
                                }
                            }
                        }

                        // tree #13
                        if (x[9] <= 3.3049999475479126) {
                            if (x[11] <= -5.644999861717224) {
                                votes[2] += 1;
                            }

                            else {
                                votes[3] += 1;
                            }
                        }

                        else {
                            if (x[6] <= 3.609999895095825) {
                                votes[4] += 1;
                            }

                            else {
                                if (x[3] <= 14.59499979019165) {
                                    if (x[10] <= -5.934999942779541) {
                                        if (x[11] <= -6.420000076293945) {
                                            if (x[6] <= 12.054999828338623) {
                                                votes[2] += 1;
                                            }

                                            else {
                                                votes[0] += 1;
                                            }
                                        }

                                        else {
                                            if (x[11] <= 5.315000057220459) {
                                                votes[1] += 1;
                                            }

                                            else {
                                                votes[5] += 1;
                                            }
                                        }
                                    }

                                    else {
                                        if (x[6] <= 14.644999980926514) {
                                            if (x[9] <= 10.904999732971191) {
                                                if (x[8] <= -6.0299999713897705) {
                                                    votes[2] += 1;
                                                }

                                                else {
                                                    votes[1] += 1;
                                                }
                                            }

                                            else {
                                                if (x[6] <= 12.510000228881836) {
                                                    if (x[3] <= 11.34000015258789) {
                                                        if (x[11] <= -10.045000076293945) {
                                                            votes[2] += 1;
                                                        }

                                                        else {
                                                            votes[1] += 1;
                                                        }
                                                    }

                                                    else {
                                                        votes[5] += 1;
                                                    }
                                                }

                                                else {
                                                    votes[0] += 1;
                                                }
                                            }
                                        }

                                        else {
                                            if (x[1] <= 0.9350000023841858) {
                                                votes[0] += 1;
                                            }

                                            else {
                                                votes[2] += 1;
                                            }
                                        }
                                    }
                                }

                                else {
                                    if (x[3] <= 14.894999980926514) {
                                        if (x[10] <= 1.1949999928474426) {
                                            votes[5] += 1;
                                        }

                                        else {
                                            votes[0] += 1;
                                        }
                                    }

                                    else {
                                        votes[5] += 1;
                                    }
                                }
                            }
                        }

                        // tree #14
                        if (x[0] <= 2.2200000286102295) {
                            votes[3] += 1;
                        }

                        else {
                            if (x[6] <= 3.609999895095825) {
                                votes[4] += 1;
                            }

                            else {
                                if (x[0] <= 14.934999942779541) {
                                    if (x[6] <= 14.025000095367432) {
                                        if (x[1] <= -4.615000009536743) {
                                            if (x[7] <= 3.5549999475479126) {
                                                votes[2] += 1;
                                            }

                                            else {
                                                if (x[9] <= 12.84000015258789) {
                                                    if (x[6] <= 9.385000228881836) {
                                                        votes[1] += 1;
                                                    }

                                                    else {
                                                        if (x[9] <= 8.279999732971191) {
                                                            votes[2] += 1;
                                                        }

                                                        else {
                                                            votes[1] += 1;
                                                        }
                                                    }
                                                }

                                                else {
                                                    if (x[3] <= 10.565000057220459) {
                                                        votes[1] += 1;
                                                    }

                                                    else {
                                                        votes[5] += 1;
                                                    }
                                                }
                                            }
                                        }

                                        else {
                                            if (x[8] <= -6.059999942779541) {
                                                if (x[8] <= -8.494999885559082) {
                                                    votes[2] += 1;
                                                }

                                                else {
                                                    if (x[4] <= 0.8850000500679016) {
                                                        votes[2] += 1;
                                                    }

                                                    else {
                                                        votes[0] += 1;
                                                    }
                                                }
                                            }

                                            else {
                                                if (x[7] <= 6.389999866485596) {
                                                    votes[5] += 1;
                                                }

                                                else {
                                                    votes[1] += 1;
                                                }
                                            }
                                        }
                                    }

                                    else {
                                        if (x[4] <= -0.7800000235438347) {
                                            votes[2] += 1;
                                        }

                                        else {
                                            if (x[9] <= 18.460000038146973) {
                                                if (x[8] <= 1.7350000739097595) {
                                                    votes[0] += 1;
                                                }

                                                else {
                                                    votes[5] += 1;
                                                }
                                            }

                                            else {
                                                votes[5] += 1;
                                            }
                                        }
                                    }
                                }

                                else {
                                    if (x[3] <= 13.134999752044678) {
                                        votes[0] += 1;
                                    }

                                    else {
                                        votes[5] += 1;
                                    }
                                }
                            }
                        }

                        // tree #15
                        if (x[3] <= 1.1150000095367432) {
                            if (x[9] <= 4.579999923706055) {
                                votes[2] += 1;
                            }

                            else {
                                votes[4] += 1;
                            }
                        }

                        else {
                            if (x[7] <= 6.444999933242798) {
                                if (x[3] <= 14.775000095367432) {
                                    if (x[8] <= 3.9250000715255737) {
                                        if (x[6] <= 13.964999675750732) {
                                            if (x[1] <= -5.495000123977661) {
                                                if (x[11] <= -6.079999923706055) {
                                                    votes[2] += 1;
                                                }

                                                else {
                                                    if (x[1] <= -7.169999837875366) {
                                                        votes[4] += 1;
                                                    }

                                                    else {
                                                        votes[1] += 1;
                                                    }
                                                }
                                            }

                                            else {
                                                if (x[3] <= 11.605000019073486) {
                                                    if (x[10] <= -6.525000095367432) {
                                                        votes[1] += 1;
                                                    }

                                                    else {
                                                        if (x[0] <= 7.2850000858306885) {
                                                            if (x[9] <= 7.825000047683716) {
                                                                votes[2] += 1;
                                                            }

                                                            else {
                                                                votes[4] += 1;
                                                            }
                                                        }

                                                        else {
                                                            votes[2] += 1;
                                                        }
                                                    }
                                                }

                                                else {
                                                    if (x[0] <= 14.210000038146973) {
                                                        votes[0] += 1;
                                                    }

                                                    else {
                                                        votes[5] += 1;
                                                    }
                                                }
                                            }
                                        }

                                        else {
                                            if (x[0] <= 6.4649999141693115) {
                                                votes[2] += 1;
                                            }

                                            else {
                                                if (x[2] <= -9.694999694824219) {
                                                    if (x[3] <= 9.5) {
                                                        votes[2] += 1;
                                                    }

                                                    else {
                                                        votes[0] += 1;
                                                    }
                                                }

                                                else {
                                                    if (x[1] <= 0.7750000059604645) {
                                                        votes[0] += 1;
                                                    }

                                                    else {
                                                        votes[2] += 1;
                                                    }
                                                }
                                            }
                                        }
                                    }

                                    else {
                                        if (x[9] <= 8.174999833106995) {
                                            votes[3] += 1;
                                        }

                                        else {
                                            votes[4] += 1;
                                        }
                                    }
                                }

                                else {
                                    if (x[11] <= 4.330000162124634) {
                                        if (x[9] <= 10.865000247955322) {
                                            votes[0] += 1;
                                        }

                                        else {
                                            votes[5] += 1;
                                        }
                                    }

                                    else {
                                        votes[5] += 1;
                                    }
                                }
                            }

                            else {
                                if (x[11] <= 4.360000133514404) {
                                    if (x[9] <= 3.8899999856948853) {
                                        votes[3] += 1;
                                    }

                                    else {
                                        if (x[5] <= -5.224999904632568) {
                                            votes[1] += 1;
                                        }

                                        else {
                                            votes[5] += 1;
                                        }
                                    }
                                }

                                else {
                                    votes[5] += 1;
                                }
                            }
                        }

                        // tree #16
                        if (x[7] <= 6.424999952316284) {
                            if (x[9] <= 3.1850000619888306) {
                                if (x[5] <= -5.9049999713897705) {
                                    if (x[0] <= 5.065000057220459) {
                                        votes[3] += 1;
                                    }

                                    else {
                                        votes[2] += 1;
                                    }
                                }

                                else {
                                    votes[3] += 1;
                                }
                            }

                            else {
                                if (x[6] <= 3.609999895095825) {
                                    votes[4] += 1;
                                }

                                else {
                                    if (x[6] <= 14.984999656677246) {
                                        if (x[3] <= 13.160000324249268) {
                                            if (x[7] <= 5.384999990463257) {
                                                if (x[6] <= 13.914999961853027) {
                                                    if (x[1] <= -5.679999828338623) {
                                                        if (x[0] <= 7.664999961853027) {
                                                            votes[1] += 1;
                                                        }

                                                        else {
                                                            votes[2] += 1;
                                                        }
                                                    }

                                                    else {
                                                        if (x[6] <= 13.675000190734863) {
                                                            if (x[0] <= 2.205000047571957) {
                                                                votes[3] += 1;
                                                            }

                                                            else {
                                                                votes[2] += 1;
                                                            }
                                                        }

                                                        else {
                                                            if (x[7] <= 1.125) {
                                                                votes[2] += 1;
                                                            }

                                                            else {
                                                                votes[0] += 1;
                                                            }
                                                        }
                                                    }
                                                }

                                                else {
                                                    if (x[9] <= 9.46500015258789) {
                                                        votes[2] += 1;
                                                    }

                                                    else {
                                                        votes[0] += 1;
                                                    }
                                                }
                                            }

                                            else {
                                                if (x[10] <= -2.2949999570846558) {
                                                    votes[1] += 1;
                                                }

                                                else {
                                                    votes[2] += 1;
                                                }
                                            }
                                        }

                                        else {
                                            votes[5] += 1;
                                        }
                                    }

                                    else {
                                        if (x[8] <= 1.2450000643730164) {
                                            votes[0] += 1;
                                        }

                                        else {
                                            votes[5] += 1;
                                        }
                                    }
                                }
                            }
                        }

                        else {
                            if (x[11] <= 4.3450000286102295) {
                                if (x[5] <= -5.2799999713897705) {
                                    if (x[0] <= 1.3000000473111868) {
                                        votes[3] += 1;
                                    }

                                    else {
                                        votes[1] += 1;
                                    }
                                }

                                else {
                                    votes[5] += 1;
                                }
                            }

                            else {
                                votes[5] += 1;
                            }
                        }

                        // tree #17
                        if (x[9] <= 3.1850000619888306) {
                            if (x[11] <= -7.664999842643738) {
                                votes[2] += 1;
                            }

                            else {
                                votes[3] += 1;
                            }
                        }

                        else {
                            if (x[7] <= 6.484999895095825) {
                                if (x[0] <= 15.005000114440918) {
                                    if (x[4] <= 0.4650000035762787) {
                                        if (x[3] <= 1.1349999904632568) {
                                            if (x[3] <= 1.0499999523162842) {
                                                votes[4] += 1;
                                            }

                                            else {
                                                if (x[8] <= -5.979999780654907) {
                                                    votes[2] += 1;
                                                }

                                                else {
                                                    votes[4] += 1;
                                                }
                                            }
                                        }

                                        else {
                                            if (x[4] <= 0.29500000178813934) {
                                                if (x[5] <= -10.704999923706055) {
                                                    votes[0] += 1;
                                                }

                                                else {
                                                    if (x[3] <= 14.150000095367432) {
                                                        if (x[8] <= -1.7300001382827759) {
                                                            votes[2] += 1;
                                                        }

                                                        else {
                                                            votes[4] += 1;
                                                        }
                                                    }

                                                    else {
                                                        votes[5] += 1;
                                                    }
                                                }
                                            }

                                            else {
                                                if (x[0] <= 11.144999980926514) {
                                                    votes[2] += 1;
                                                }

                                                else {
                                                    if (x[2] <= -7.604999780654907) {
                                                        votes[5] += 1;
                                                    }

                                                    else {
                                                        votes[0] += 1;
                                                    }
                                                }
                                            }
                                        }
                                    }

                                    else {
                                        if (x[2] <= -8.364999771118164) {
                                            if (x[0] <= 11.445000171661377) {
                                                votes[2] += 1;
                                            }

                                            else {
                                                if (x[4] <= 0.8400000035762787) {
                                                    votes[5] += 1;
                                                }

                                                else {
                                                    if (x[3] <= 14.404999732971191) {
                                                        votes[0] += 1;
                                                    }

                                                    else {
                                                        votes[5] += 1;
                                                    }
                                                }
                                            }
                                        }

                                        else {
                                            if (x[8] <= -1.0000000298023224) {
                                                if (x[8] <= -9.380000114440918) {
                                                    if (x[0] <= 5.4150002002716064) {
                                                        votes[2] += 1;
                                                    }

                                                    else {
                                                        votes[1] += 1;
                                                    }
                                                }

                                                else {
                                                    if (x[6] <= 11.275000095367432) {
                                                        if (x[2] <= -5.4049999713897705) {
                                                            votes[1] += 1;
                                                        }

                                                        else {
                                                            votes[4] += 1;
                                                        }
                                                    }

                                                    else {
                                                        votes[0] += 1;
                                                    }
                                                }
                                            }

                                            else {
                                                if (x[0] <= 9.974999904632568) {
                                                    if (x[6] <= 9.315000057220459) {
                                                        votes[1] += 1;
                                                    }

                                                    else {
                                                        votes[3] += 1;
                                                    }
                                                }

                                                else {
                                                    votes[5] += 1;
                                                }
                                            }
                                        }
                                    }
                                }

                                else {
                                    if (x[6] <= 16.824999809265137) {
                                        if (x[8] <= -1.2249999046325684) {
                                            votes[0] += 1;
                                        }

                                        else {
                                            votes[5] += 1;
                                        }
                                    }

                                    else {
                                        if (x[5] <= -4.795000076293945) {
                                            votes[0] += 1;
                                        }

                                        else {
                                            votes[5] += 1;
                                        }
                                    }
                                }
                            }

                            else {
                                if (x[3] <= 13.434999942779541) {
                                    votes[1] += 1;
                                }

                                else {
                                    votes[5] += 1;
                                }
                            }
                        }

                        // tree #18
                        if (x[10] <= -6.105000019073486) {
                            if (x[7] <= 5.1000001430511475) {
                                if (x[7] <= 0.2800000160932541) {
                                    if (x[8] <= -5.990000128746033) {
                                        votes[2] += 1;
                                    }

                                    else {
                                        votes[4] += 1;
                                    }
                                }

                                else {
                                    if (x[9] <= 8.974999904632568) {
                                        votes[1] += 1;
                                    }

                                    else {
                                        votes[0] += 1;
                                    }
                                }
                            }

                            else {
                                if (x[10] <= -6.484999895095825) {
                                    if (x[3] <= 13.6899995803833) {
                                        votes[1] += 1;
                                    }

                                    else {
                                        votes[5] += 1;
                                    }
                                }

                                else {
                                    if (x[9] <= 12.549999713897705) {
                                        votes[1] += 1;
                                    }

                                    else {
                                        votes[5] += 1;
                                    }
                                }
                            }
                        }

                        else {
                            if (x[8] <= -1.6899999976158142) {
                                if (x[4] <= 0.8700000047683716) {
                                    if (x[5] <= -3.6449999809265137) {
                                        if (x[0] <= 4.5350000858306885) {
                                            votes[1] += 1;
                                        }

                                        else {
                                            if (x[11] <= -7.134999990463257) {
                                                votes[2] += 1;
                                            }

                                            else {
                                                votes[1] += 1;
                                            }
                                        }
                                    }

                                    else {
                                        votes[4] += 1;
                                    }
                                }

                                else {
                                    if (x[1] <= -0.7849999964237213) {
                                        if (x[8] <= -9.434999942779541) {
                                            if (x[6] <= 12.944999694824219) {
                                                votes[2] += 1;
                                            }

                                            else {
                                                votes[0] += 1;
                                            }
                                        }

                                        else {
                                            if (x[6] <= 12.925000190734863) {
                                                if (x[2] <= -5.454999804496765) {
                                                    votes[2] += 1;
                                                }

                                                else {
                                                    votes[1] += 1;
                                                }
                                            }

                                            else {
                                                votes[0] += 1;
                                            }
                                        }
                                    }

                                    else {
                                        if (x[5] <= -6.204999923706055) {
                                            votes[2] += 1;
                                        }

                                        else {
                                            votes[0] += 1;
                                        }
                                    }
                                }
                            }

                            else {
                                if (x[9] <= 4.294999957084656) {
                                    votes[3] += 1;
                                }

                                else {
                                    if (x[0] <= 11.875) {
                                        if (x[5] <= -3.439999997615814) {
                                            votes[1] += 1;
                                        }

                                        else {
                                            votes[4] += 1;
                                        }
                                    }

                                    else {
                                        votes[5] += 1;
                                    }
                                }
                            }
                        }

                        // tree #19
                        if (x[11] <= -5.880000114440918) {
                            if (x[3] <= 10.71500015258789) {
                                if (x[10] <= -5.009999990463257) {
                                    if (x[1] <= -2.9250000715255737) {
                                        if (x[3] <= 7.925000190734863) {
                                            votes[1] += 1;
