#pragma once
#include <cstdarg>
namespace Eloquent {
    namespace ML {
        namespace Port {
            class SVM {
                public:
                    /**
                    * Predict class for features vector
                    */
                    int predict(float *x) {
                        float kernels[241] = { 0 };
                        float decisions[15] = { 0 };
                        int votes[6] = { 0 };
                        kernels[0] = compute_kernel(x,   12.87  , -2.74  , -9.64  , 11.78  , 1.01  , -9.62  , 14.4  , -3.66  , -9.47  , 14.44  , 0.91  , -10.49 );
                        kernels[1] = compute_kernel(x,   12.88  , -2.65  , -9.62  , 11.89  , 0.99  , -9.68  , 14.47  , -3.84  , -9.42  , 14.19  , 0.79  , -10.57 );
                        kernels[2] = compute_kernel(x,   12.82  , -2.7  , -9.59  , 11.86  , 0.97  , -9.71  , 14.49  , -3.77  , -9.17  , 14.05  , 0.76  , -10.62 );
                        kernels[3] = compute_kernel(x,   12.86  , -2.68  , -9.51  , 11.83  , 0.88  , -9.63  , 14.33  , -3.81  , -9.34  , 14.08  , 1.02  , -10.66 );
                        kernels[4] = compute_kernel(x,   12.83  , -2.72  , -9.63  , 11.87  , 0.87  , -9.58  , 14.23  , -3.83  , -9.43  , 14.08  , 1.02  , -10.66 );
                        kernels[5] = compute_kernel(x,   12.84  , -2.87  , -9.61  , 11.87  , 0.92  , -9.69  , 14.38  , -3.94  , -9.36  , 14.08  , 1.02  , -10.66 );
                        kernels[6] = compute_kernel(x,   12.88  , -2.78  , -9.64  , 11.85  , 1.01  , -9.63  , 14.61  , -3.78  , -9.36  , 13.96  , 0.67  , -10.71 );
                        kernels[7] = compute_kernel(x,   12.71  , -3.01  , -9.53  , 10.79  , 1.36  , -9.67  , 14.84  , -4.12  , -9.07  , 14.65  , -0.11  , -10.01 );
                        kernels[8] = compute_kernel(x,   7.91  , -1.02  , 2.5  , 13.38  , 5.77  , -5.31  , 16.8  , 3.52  , -3.35  , 4.87  , 3.3  , 2.68 );
                        kernels[9] = compute_kernel(x,   7.93  , -0.89  , 2.53  , 13.46  , 5.8  , -5.3  , 16.79  , 3.35  , -3.26  , 4.69  , 3.61  , 2.91 );
                        kernels[10] = compute_kernel(x,   7.4  , -1.25  , 2.21  , 13.23  , 6.31  , -5.26  , 16.89  , 4.28  , -2.59  , 4.64  , 2.39  , 2.58 );
                        kernels[11] = compute_kernel(x,   7.55  , -1.37  , 2.29  , 13.32  , 6.17  , -5.28  , 16.83  , 4.36  , -2.5  , 4.74  , 2.63  , 2.83 );
                        kernels[12] = compute_kernel(x,   7.73  , -1.12  , 2.23  , 13.65  , 6.04  , -5.35  , 17.07  , 4.14  , -1.91  , 4.87  , 3.27  , 2.72 );
                        kernels[13] = compute_kernel(x,   7.71  , -1.11  , 2.26  , 13.73  , 6.13  , -5.36  , 17.13  , 3.94  , -1.78  , 4.87  , 3.21  , 2.65 );
                        kernels[14] = compute_kernel(x,   7.72  , -1.08  , 2.28  , 13.73  , 6.26  , -5.44  , 17.21  , 4.11  , -1.7  , 4.87  , 3.21  , 2.65 );
                        kernels[15] = compute_kernel(x,   7.48  , -1.21  , 2.29  , 13.49  , 6.12  , -5.26  , 17.03  , 4.08  , -2.15  , 4.85  , 3.03  , 2.71 );
                        kernels[16] = compute_kernel(x,   7.47  , -1.28  , 2.27  , 13.47  , 6.19  , -5.29  , 16.96  , 4.03  , -2.07  , 4.83  , 2.88  , 2.72 );
                        kernels[17] = compute_kernel(x,   7.86  , -1.23  , 2.39  , 13.07  , 6.03  , -5.47  , 16.68  , 3.85  , -2.79  , 5.33  , 3.47  , 3.48 );
                        kernels[18] = compute_kernel(x,   7.79  , -1.11  , 2.49  , 13.16  , 5.87  , -5.2  , 16.62  , 3.51  , -3.2  , 5.24  , 3.4  , 3.33 );
                        kernels[19] = compute_kernel(x,   7.84  , -0.94  , 2.44  , 13.19  , 5.81  , -5.21  , 16.66  , 3.35  , -3.07  , 5.24  , 3.4  , 3.33 );
                        kernels[20] = compute_kernel(x,   7.81  , -1.17  , 2.46  , 13.23  , 5.96  , -5.23  , 16.78  , 3.68  , -2.62  , 5.77  , 3.9  , 3.58 );
                        kernels[21] = compute_kernel(x,   7.62  , -1.21  , 2.2  , 13.9  , 5.56  , -5.68  , 17.14  , 4.98  , -2.82  , 5.88  , 2.2  , 3.17 );
                        kernels[22] = compute_kernel(x,   8.22  , -0.78  , 2.2  , 14.95  , 5.13  , -5.16  , 17.51  , 4.49  , -1.82  , 6.03  , 3.74  , 4.32 );
                        kernels[23] = compute_kernel(x,   8.28  , -0.8  , 2.13  , 14.89  , 5.13  , -5.17  , 17.32  , 4.26  , -1.72  , 6.17  , 3.54  , 4.11 );
                        kernels[24] = compute_kernel(x,   8.25  , -0.83  , 2.22  , 14.73  , 5.12  , -5.1  , 17.37  , 4.23  , -1.66  , 6.17  , 3.54  , 4.11 );
                        kernels[25] = compute_kernel(x,   12.24  , -5.37  , -5.76  , 9.04  , 0.71  , -11.2  , 15.91  , 2.11  , -8.17  , 10.64  , -8.31  , -9.99 );
                        kernels[26] = compute_kernel(x,   12.24  , -5.49  , -5.89  , 9.12  , 0.65  , -11.22  , 16.1  , 2.37  , -8.17  , 10.62  , -8.3  , -9.98 );
                        kernels[27] = compute_kernel(x,   12.42  , -5.25  , -5.9  , 8.89  , 0.24  , -11.37  , 16.24  , 0.92  , -8.36  , 10.12  , -8.6  , -10.12 );
                        kernels[28] = compute_kernel(x,   12.2  , -5.04  , -6.16  , 9.25  , 1.0  , -11.02  , 16.38  , 1.82  , -7.93  , 9.37  , -8.03  , -10.5 );
                        kernels[29] = compute_kernel(x,   12.08  , -4.98  , -5.88  , 9.17  , 1.13  , -11.1  , 16.49  , 1.89  , -8.06  , 9.47  , -7.99  , -10.28 );
                        kernels[30] = compute_kernel(x,   11.95  , -5.5  , -6.21  , 9.04  , 0.88  , -11.0  , 16.63  , 1.85  , -7.82  , 9.24  , -8.21  , -10.5 );
                        kernels[31] = compute_kernel(x,   11.92  , -5.59  , -6.25  , 9.13  , 0.82  , -11.05  , 16.57  , 1.94  , -7.91  , 9.24  , -8.21  , -10.5 );
                        kernels[32] = compute_kernel(x,   12.91  , -4.36  , -7.24  , 12.33  , 4.01  , -6.75  , 17.44  , 4.77  , -3.47  , 14.18  , -5.11  , -7.51 );
                        kernels[33] = compute_kernel(x,   12.92  , -4.37  , -7.21  , 12.37  , 4.02  , -6.74  , 17.41  , 4.8  , -3.45  , 14.0  , -5.14  , -7.64 );
                        kernels[34] = compute_kernel(x,   13.08  , -3.85  , -7.7  , 11.02  , 2.12  , -8.07  , 14.52  , 2.18  , -9.08  , 13.06  , -2.53  , -9.82 );
                        kernels[35] = compute_kernel(x,   12.22  , -3.51  , -7.97  , 12.32  , 2.4  , -7.3  , 15.24  , 2.03  , -8.18  , 11.49  , -2.8  , -10.18 );
                        kernels[36] = compute_kernel(x,   12.07  , -3.62  , -7.92  , 12.1  , 2.36  , -7.37  , 15.14  , 1.94  , -8.18  , 11.41  , -2.75  , -10.04 );
                        kernels[37] = compute_kernel(x,   12.03  , -3.6  , -7.95  , 11.99  , 2.33  , -7.41  , 15.05  , 1.76  , -8.04  , 11.41  , -2.75  , -10.04 );
                        kernels[38] = compute_kernel(x,   12.01  , -3.59  , -7.88  , 12.18  , 2.28  , -7.32  , 15.02  , 1.54  , -7.99  , 11.48  , -2.9  , -9.87 );
                        kernels[39] = compute_kernel(x,   12.02  , -3.53  , -7.87  , 12.24  , 2.28  , -7.3  , 15.07  , 1.4  , -7.91  , 11.48  , -2.9  , -9.87 );
                        kernels[40] = compute_kernel(x,   12.09  , -3.48  , -7.86  , 12.36  , 2.24  , -7.19  , 15.03  , 1.62  , -7.89  , 11.3  , -2.69  , -9.79 );
                        kernels[41] = compute_kernel(x,   12.06  , -3.47  , -7.83  , 12.42  , 2.26  , -7.19  , 14.94  , 1.86  , -7.8  , 11.3  , -2.69  , -9.79 );
                        kernels[42] = compute_kernel(x,   12.17  , -3.44  , -7.76  , 12.38  , 2.29  , -7.15  , 14.99  , 1.85  , -7.71  , 11.54  , -2.25  , -9.83 );
                        kernels[43] = compute_kernel(x,   11.81  , -4.91  , -7.43  , 10.7  , 4.44  , -7.2  , 16.87  , 4.72  , -5.63  , 12.63  , -6.16  , -8.23 );
                        kernels[44] = compute_kernel(x,   11.8  , -4.82  , -7.25  , 10.55  , 4.46  , -7.28  , 16.71  , 4.78  , -5.85  , 12.64  , -6.09  , -8.11 );
                        kernels[45] = compute_kernel(x,   11.61  , -4.83  , -7.3  , 10.54  , 4.7  , -7.21  , 16.94  , 4.84  , -5.32  , 13.1  , -5.89  , -7.81 );
                        kernels[46] = compute_kernel(x,   11.66  , -4.74  , -7.37  , 10.62  , 4.75  , -7.18  , 17.03  , 4.82  , -5.29  , 13.1  , -5.89  , -7.81 );
                        kernels[47] = compute_kernel(x,   11.58  , -4.84  , -7.45  , 10.56  , 4.73  , -6.9  , 16.74  , 4.66  , -5.71  , 13.28  , -5.46  , -7.89 );
                        kernels[48] = compute_kernel(x,   11.06  , -5.14  , -8.19  , 11.0  , 4.42  , -7.66  , 17.56  , 4.65  , -5.34  , 13.02  , -6.37  , -8.16 );
                        kernels[49] = compute_kernel(x,   11.31  , -5.42  , -8.13  , 11.11  , 4.53  , -7.79  , 17.42  , 4.75  , -5.47  , 13.02  , -6.37  , -8.16 );
                        kernels[50] = compute_kernel(x,   12.19  , -3.09  , -7.91  , 10.85  , 3.46  , -7.08  , 16.07  , 3.28  , -5.86  , 11.66  , -6.04  , -7.98 );
                        kernels[51] = compute_kernel(x,   12.62  , -2.55  , -7.62  , 10.92  , 3.59  , -7.38  , 16.23  , 3.5  , -5.69  , 11.0  , -6.4  , -8.1 );
                        kernels[52] = compute_kernel(x,   13.04  , -2.61  , -7.45  , 10.92  , 3.99  , -7.56  , 16.03  , 3.89  , -5.64  , 11.0  , -6.4  , -8.1 );
                        kernels[53] = compute_kernel(x,   13.12  , -5.67  , -6.88  , 9.59  , 4.04  , -7.06  , 16.44  , 4.07  , -6.63  , 13.24  , -6.34  , -6.6 );
                        kernels[54] = compute_kernel(x,   14.81  , -4.77  , -6.19  , 11.1  , 3.47  , -7.33  , 16.67  , 3.34  , -5.92  , 17.73  , -3.26  , -5.85 );
                        kernels[55] = compute_kernel(x,   14.8  , -4.88  , -6.23  , 11.02  , 3.47  , -7.41  , 16.55  , 3.43  , -5.91  , 17.73  , -3.26  , -5.85 );
                        kernels[56] = compute_kernel(x,   14.33  , -4.14  , -7.15  , 14.16  , 5.19  , -5.52  , 18.92  , 0.17  , -4.11  , 17.34  , -2.18  , -6.82 );
                        kernels[57] = compute_kernel(x,   14.31  , -4.25  , -7.08  , 14.28  , 5.25  , -5.57  , 19.06  , 0.06  , -4.0  , 17.29  , -2.34  , -6.91 );
                        kernels[58] = compute_kernel(x,   14.35  , -4.19  , -7.11  , 14.12  , 5.18  , -5.66  , 19.01  , 0.21  , -4.1  , 17.31  , -2.27  , -6.77 );
                        kernels[59] = compute_kernel(x,   7.02  , -7.23  , -2.45  , 4.12  , 2.18  , -9.16  , 4.93  , 7.39  , -5.08  , 6.08  , -6.78  , 0.73 );
                        kernels[60] = compute_kernel(x,   6.9  , -6.44  , -2.65  , 4.18  , 2.26  , -9.2  , 4.77  , 7.45  , -5.15  , 6.32  , -6.38  , 0.88 );
                        kernels[61] = compute_kernel(x,   7.16  , -6.6  , -2.62  , 4.22  , 2.15  , -9.2  , 5.12  , 7.19  , -5.22  , 6.36  , -6.84  , 1.14 );
                        kernels[62] = compute_kernel(x,   7.08  , -6.7  , -2.56  , 4.27  , 1.88  , -9.22  , 5.1  , 7.23  , -5.11  , 6.55  , -7.02  , 1.11 );
                        kernels[63] = compute_kernel(x,   7.14  , -6.37  , -2.81  , 5.81  , 2.84  , -9.41  , 4.53  , 7.75  , -5.23  , 7.57  , -6.78  , 2.69 );
                        kernels[64] = compute_kernel(x,   7.16  , -6.73  , -2.51  , 6.11  , 2.96  , -9.63  , 5.15  , 7.35  , -4.2  , 8.35  , -6.67  , 2.94 );
                        kernels[65] = compute_kernel(x,   6.35  , -6.66  , -2.4  , 5.63  , 3.16  , -9.73  , 4.82  , 7.28  , -3.74  , 7.83  , -6.89  , 2.38 );
                        kernels[66] = compute_kernel(x,   6.23  , -6.38  , -2.49  , 6.21  , 3.08  , -9.84  , 4.85  , 7.36  , -3.58  , 7.18  , -6.94  , 2.33 );
                        kernels[67] = compute_kernel(x,   6.13  , -6.37  , -2.49  , 5.95  , 3.43  , -9.96  , 4.94  , 7.03  , -3.59  , 7.18  , -6.94  , 2.33 );
                        kernels[68] = compute_kernel(x,   6.27  , -6.75  , -2.43  , 5.7  , 3.44  , -9.67  , 5.05  , 6.93  , -3.68  , 7.6  , -7.08  , 2.22 );
                        kernels[69] = compute_kernel(x,   6.28  , -5.7  , -6.88  , 8.13  , 0.76  , -8.49  , 6.44  , 4.45  , -7.86  , 8.71  , -8.8  , -3.94 );
                        kernels[70] = compute_kernel(x,   6.33  , -5.72  , -6.91  , 7.88  , 0.58  , -8.44  , 6.36  , 4.49  , -7.78  , 8.58  , -8.8  , -3.97 );
                        kernels[71] = compute_kernel(x,   6.27  , -5.62  , -6.89  , 7.82  , 0.63  , -8.5  , 6.94  , 4.66  , -7.91  , 8.58  , -8.8  , -3.97 );
                        kernels[72] = compute_kernel(x,   6.27  , -5.75  , -6.91  , 7.91  , 0.97  , -8.57  , 8.0  , 4.19  , -8.15  , 8.58  , -8.8  , -3.97 );
                        kernels[73] = compute_kernel(x,   6.21  , -5.9  , -6.82  , 7.87  , 0.97  , -8.47  , 8.29  , 3.6  , -8.07  , 8.58  , -8.8  , -3.97 );
                        kernels[74] = compute_kernel(x,   6.17  , -5.89  , -6.87  , 8.05  , 0.87  , -8.26  , 8.54  , 3.32  , -7.8  , 8.51  , -8.86  , -4.18 );
                        kernels[75] = compute_kernel(x,   6.19  , -5.91  , -6.83  , 8.21  , 1.01  , -8.35  , 8.62  , 3.64  , -8.52  , 8.51  , -8.86  , -4.18 );
                        kernels[76] = compute_kernel(x,   6.15  , -5.9  , -6.81  , 8.1  , 1.07  , -8.59  , 7.68  , 3.93  , -8.59  , 8.54  , -8.87  , -4.15 );
                        kernels[77] = compute_kernel(x,   6.08  , -5.87  , -6.95  , 7.88  , 1.25  , -8.69  , 6.57  , 4.08  , -8.85  , 8.54  , -8.87  , -4.15 );
                        kernels[78] = compute_kernel(x,   6.07  , -5.75  , -6.92  , 7.54  , 1.36  , -8.74  , 6.46  , 4.23  , -9.69  , 8.6  , -8.92  , -4.12 );
                        kernels[79] = compute_kernel(x,   6.3  , -2.86  , -8.98  , 7.95  , 0.47  , -8.65  , 10.29  , 8.07  , -0.47  , 10.95  , -0.56  , -9.95 );
                        kernels[80] = compute_kernel(x,   6.33  , -2.6  , -8.99  , 7.97  , 0.68  , -8.6  , 10.31  , 7.89  , -0.53  , 10.95  , -0.56  , -9.95 );
                        kernels[81] = compute_kernel(x,   6.31  , -2.33  , -8.96  , 7.98  , 0.67  , -8.64  , 10.59  , 7.8  , -0.51  , 10.95  , -0.56  , -9.95 );
                        kernels[82] = compute_kernel(x,   6.19  , -2.2  , -8.89  , 8.09  , 0.66  , -8.65  , 10.91  , 7.92  , -0.59  , 10.64  , -0.85  , -10.02 );
                        kernels[83] = compute_kernel(x,   6.2  , -2.23  , -8.88  , 8.21  , 0.91  , -8.69  , 10.98  , 8.0  , -0.9  , 10.64  , -0.85  , -10.02 );
                        kernels[84] = compute_kernel(x,   6.46  , -2.27  , -8.79  , 8.33  , 1.17  , -8.62  , 10.76  , 7.92  , -1.27  , 11.2  , -1.18  , -10.01 );
                        kernels[85] = compute_kernel(x,   6.86  , -2.28  , -8.88  , 8.42  , 1.33  , -8.47  , 10.46  , 7.69  , -1.6  , 11.2  , -1.18  , -10.01 );
                        kernels[86] = compute_kernel(x,   7.99  , -4.53  , -6.65  , 8.64  , -0.44  , -5.81  , 6.86  , 6.54  , -1.17  , 12.22  , -8.56  , -1.68 );
                        kernels[87] = compute_kernel(x,   7.88  , -5.69  , -6.44  , 11.42  , 3.85  , -7.07  , 10.71  , 7.58  , -1.48  , 10.32  , -9.25  , -2.37 );
                        kernels[88] = compute_kernel(x,   7.92  , -5.77  , -6.34  , 12.9  , 4.02  , -7.32  , 10.67  , 7.03  , -1.69  , 11.08  , -9.42  , -2.43 );
                        kernels[89] = compute_kernel(x,   5.12  , -3.28  , -4.47  , 5.43  , 7.07  , -9.84  , 8.42  , 14.66  , 0.22  , 7.48  , -7.27  , -4.38 );
                        kernels[90] = compute_kernel(x,   9.2  , -4.81  , -8.1  , 11.03  , 4.75  , -7.13  , 12.17  , 8.76  , 0.38  , 11.07  , -9.51  , 0.88 );
                        kernels[91] = compute_kernel(x,   9.29  , -4.85  , -8.03  , 11.1  , 4.54  , -7.11  , 12.31  , 8.83  , 0.41  , 11.07  , -9.51  , 0.88 );
                        kernels[92] = compute_kernel(x,   8.88  , -5.27  , -7.56  , 10.57  , 4.19  , -7.22  , 12.7  , 8.63  , 0.92  , 10.75  , -9.08  , 0.2 );
                        kernels[93] = compute_kernel(x,   9.13  , -4.91  , -7.94  , 10.49  , 3.29  , -7.71  , 12.62  , 9.18  , 0.83  , 11.2  , -9.2  , 1.33 );
                        kernels[94] = compute_kernel(x,   9.1  , -5.08  , -7.97  , 10.46  , 3.23  , -7.7  , 12.63  , 9.19  , 0.91  , 11.2  , -9.2  , 1.33 );
                        kernels[95] = compute_kernel(x,   8.94  , -5.09  , -8.0  , 10.59  , 3.2  , -7.62  , 12.44  , 8.83  , 0.74  , 10.94  , -9.19  , 1.25 );
                        kernels[96] = compute_kernel(x,   8.97  , -5.12  , -7.99  , 10.43  , 3.25  , -7.56  , 12.62  , 8.73  , 0.79  , 10.95  , -9.15  , 1.24 );
                        kernels[97] = compute_kernel(x,   9.61  , -4.67  , -8.11  , 10.85  , 2.54  , -7.66  , 12.27  , 8.67  , -0.67  , 10.52  , -9.39  , 0.2 );
                        kernels[98] = compute_kernel(x,   9.68  , -4.54  , -8.09  , 10.77  , 2.59  , -7.77  , 12.21  , 8.73  , -0.68  , 10.52  , -9.39  , 0.2 );
                        kernels[99] = compute_kernel(x,   9.62  , -7.7  , -3.12  , 9.58  , 5.15  , -6.27  , 9.12  , 8.44  , 2.98  , 11.01  , -6.93  , 0.71 );
                        kernels[100] = compute_kernel(x,   9.76  , -7.25  , -3.9  , 9.52  , 5.09  , -6.64  , 8.43  , 8.72  , 3.74  , 11.27  , -6.74  , 0.79 );
                        kernels[101] = compute_kernel(x,   9.98  , -7.27  , -3.84  , 9.53  , 5.09  , -6.74  , 8.76  , 8.58  , 3.87  , 11.27  , -6.74  , 0.79 );
                        kernels[102] = compute_kernel(x,   10.0  , -7.33  , -3.88  , 9.5  , 5.2  , -6.75  , 9.15  , 8.39  , 3.99  , 11.68  , -6.66  , 0.79 );
                        kernels[103] = compute_kernel(x,   10.05  , -7.39  , -3.71  , 9.61  , 5.21  , -6.9  , 9.48  , 8.45  , 4.06  , 11.68  , -6.66  , 0.79 );
                        kernels[104] = compute_kernel(x,   9.93  , -7.6  , -3.42  , 9.79  , 5.46  , -6.78  , 9.64  , 8.67  , 4.09  , 11.68  , -6.66  , 0.79 );
                        kernels[105] = compute_kernel(x,   9.94  , -7.8  , -3.17  , 9.76  , 5.78  , -6.45  , 9.59  , 8.75  , 3.84  , 11.7  , -6.75  , 0.26 );
                        kernels[106] = compute_kernel(x,   9.72  , -7.82  , -2.98  , 9.58  , 5.98  , -6.27  , 9.46  , 8.74  , 3.47  , 11.7  , -6.75  , 0.26 );
                        kernels[107] = compute_kernel(x,   9.24  , -7.41  , -3.38  , 9.53  , 5.21  , -6.84  , 8.62  , 9.02  , 4.12  , 10.06  , -6.91  , 0.9 );
                        kernels[108] = compute_kernel(x,   9.94  , -7.66  , -3.74  , 9.43  , 3.76  , -6.81  , 9.17  , 7.98  , 2.26  , 11.04  , -6.13  , 0.73 );
                        kernels[109] = compute_kernel(x,   10.98  , 5.54  , -5.93  , 10.26  , -5.66  , -5.74  , 9.26  , 2.59  , -9.35  , 9.02  , 1.06  , -11.44 );
                        kernels[110] = compute_kernel(x,   5.52  , -3.92  , -8.01  , 1.28  , -1.31  , -7.19  , 6.83  , -3.43  , -11.01  , 3.67  , -4.55  , -11.36 );
                        kernels[111] = compute_kernel(x,   7.98  , 3.2  , -12.51  , 10.62  , -7.79  , -4.46  , 4.79  , -7.42  , -8.16  , 6.56  , -1.78  , -9.85 );
                        kernels[112] = compute_kernel(x,   4.54  , 0.31  , -8.5  , 4.14  , 3.96  , -7.24  , 10.62  , 2.58  , -9.05  , 4.52  , -1.12  , -8.85 );
                        kernels[113] = compute_kernel(x,   4.74  , 0.41  , -8.72  , 4.0  , 3.03  , -7.2  , 11.26  , 2.92  , -8.61  , 4.52  , -1.12  , -8.85 );
                        kernels[114] = compute_kernel(x,   4.89  , 0.48  , -8.67  , 4.16  , 1.48  , -6.94  , 11.89  , 3.1  , -8.46  , 4.72  , -1.33  , -9.09 );
                        kernels[115] = compute_kernel(x,   6.31  , 0.27  , -7.9  , 6.48  , -2.1  , -7.77  , 13.2  , -2.21  , -7.91  , 5.48  , -2.16  , -8.55 );
                        kernels[116] = compute_kernel(x,   9.16  , -1.96  , -8.86  , 8.48  , 2.63  , -7.99  , 11.48  , 2.15  , -9.29  , 6.27  , -3.07  , -8.98 );
                        kernels[117] = compute_kernel(x,   9.2  , -2.1  , -8.88  , 8.49  , 2.56  , -7.88  , 11.41  , 2.09  , -9.35  , 6.27  , -3.07  , -8.98 );
                        kernels[118] = compute_kernel(x,   9.27  , -2.39  , -8.99  , 8.37  , 2.51  , -7.84  , 11.28  , 1.93  , -9.28  , 6.26  , -3.2  , -8.79 );
                        kernels[119] = compute_kernel(x,   10.79  , -2.4  , -9.39  , 8.89  , 1.26  , -8.62  , 9.92  , -0.1  , -9.73  , 7.41  , -3.24  , -9.14 );
                        kernels[120] = compute_kernel(x,   10.16  , -1.85  , -8.75  , 9.83  , 1.88  , -8.56  , 11.06  , 0.1  , -9.12  , 6.59  , -2.11  , -9.8 );
                        kernels[121] = compute_kernel(x,   10.53  , -1.95  , -8.81  , 10.07  , 1.85  , -8.59  , 11.24  , 0.15  , -9.08  , 6.59  , -2.11  , -9.8 );
                        kernels[122] = compute_kernel(x,   10.76  , -1.84  , -8.84  , 10.3  , 1.86  , -8.79  , 11.48  , 0.16  , -8.92  , 6.59  , -2.11  , -9.8 );
                        kernels[123] = compute_kernel(x,   10.96  , -1.68  , -8.94  , 10.45  , 1.91  , -9.02  , 11.79  , 0.2  , -8.78  , 6.92  , -2.17  , -9.69 );
                        kernels[124] = compute_kernel(x,   10.98  , -1.59  , -8.94  , 10.73  , 1.84  , -9.11  , 11.93  , 0.23  , -8.72  , 6.92  , -2.17  , -9.69 );
                        kernels[125] = compute_kernel(x,   11.04  , -1.48  , -8.99  , 10.83  , 1.81  , -9.06  , 11.8  , 0.36  , -8.84  , 7.08  , -1.8  , -9.64 );
                        kernels[126] = compute_kernel(x,   10.98  , -1.47  , -8.99  , 10.63  , 1.68  , -8.96  , 11.48  , 0.53  , -9.08  , 7.08  , -1.8  , -9.64 );
                        kernels[127] = compute_kernel(x,   10.86  , -1.6  , -9.02  , 10.17  , 1.55  , -8.84  , 10.98  , 0.74  , -9.41  , 6.88  , -1.65  , -9.62 );
                        kernels[128] = compute_kernel(x,   9.58  , -3.4  , -8.58  , 9.34  , 3.2  , -7.78  , 7.52  , 0.55  , -9.54  , 6.43  , -2.72  , -8.73 );
                        kernels[129] = compute_kernel(x,   9.79  , -3.03  , -8.82  , 9.43  , 2.52  , -7.98  , 7.52  , 0.9  , -9.76  , 6.45  , -3.45  , -8.53 );
                        kernels[130] = compute_kernel(x,   9.79  , -3.14  , -8.93  , 9.52  , 2.43  , -8.07  , 7.63  , 1.04  , -9.96  , 6.45  , -3.45  , -8.53 );
                        kernels[131] = compute_kernel(x,   9.92  , -3.22  , -8.98  , 9.6  , 2.45  , -8.1  , 7.7  , 1.14  , -10.09  , 6.79  , -3.71  , -8.66 );
                        kernels[132] = compute_kernel(x,   10.03  , -3.28  , -9.08  , 9.78  , 2.49  , -8.15  , 7.72  , 1.19  , -10.13  , 6.79  , -3.71  , -8.66 );
                        kernels[133] = compute_kernel(x,   10.3  , -3.33  , -8.94  , 9.88  , 2.59  , -8.18  , 7.69  , 1.17  , -10.23  , 6.79  , -3.71  , -8.66 );
                        kernels[134] = compute_kernel(x,   6.62  , -0.77  , -8.35  , 5.98  , -1.63  , -7.72  , 9.05  , -1.58  , -9.87  , 4.74  , -3.12  , -7.52 );
                        kernels[135] = compute_kernel(x,   6.42  , -1.26  , -9.25  , 6.09  , -2.07  , -7.92  , 10.82  , 0.64  , -10.07  , 4.9  , -5.54  , -8.71 );
                        kernels[136] = compute_kernel(x,   6.35  , -1.6  , -9.31  , 6.14  , -2.03  , -8.11  , 10.92  , 0.88  , -10.26  , 4.9  , -5.54  , -8.71 );
                        kernels[137] = compute_kernel(x,   6.07  , -2.35  , -9.16  , 6.74  , -1.98  , -7.58  , 8.33  , -0.89  , -10.34  , 4.86  , -6.26  , -9.13 );
                        kernels[138] = compute_kernel(x,   5.9  , -2.45  , -9.11  , 6.8  , -1.68  , -7.58  , 8.42  , -0.64  , -10.68  , 4.86  , -6.26  , -9.13 );
                        kernels[139] = compute_kernel(x,   9.61  , -4.21  , -8.78  , 4.38  , -0.38  , -9.6  , 7.36  , -1.32  , -8.92  , 10.41  , -1.34  , -10.14 );
                        kernels[140] = compute_kernel(x,   9.04  , 0.72  , -9.84  , 8.58  , -0.47  , -7.96  , 10.62  , -1.92  , -9.53  , 9.38  , -1.76  , -10.75 );
                        kernels[141] = compute_kernel(x,   8.96  , 0.79  , -9.72  , 8.57  , -0.54  , -7.81  , 10.73  , -1.61  , -9.64  , 9.38  , -1.76  , -10.75 );
                        kernels[142] = compute_kernel(x,   8.99  , 0.53  , -9.7  , 8.53  , -0.34  , -7.81  , 10.49  , -1.67  , -9.55  , 9.46  , -1.86  , -10.53 );
                        kernels[143] = compute_kernel(x,   9.01  , 0.59  , -9.74  , 8.44  , -0.23  , -7.86  , 10.64  , -1.56  , -9.54  , 9.46  , -1.86  , -10.53 );
                        kernels[144] = compute_kernel(x,   9.08  , 0.64  , -9.77  , 8.46  , -0.34  , -7.9  , 10.58  , -1.3  , -9.57  , 9.64  , -2.02  , -10.35 );
                        kernels[145] = compute_kernel(x,   10.0  , -4.87  , -7.5  , 7.81  , -1.49  , -8.11  , 9.55  , 4.79  , -9.19  , 8.07  , 0.72  , -9.7 );
                        kernels[146] = compute_kernel(x,   10.04  , -5.23  , -7.5  , 7.7  , -1.05  , -8.25  , 9.39  , 5.03  , -9.3  , 8.07  , 0.72  , -9.7 );
                        kernels[147] = compute_kernel(x,   10.03  , -5.57  , -7.5  , 7.75  , -0.75  , -8.27  , 9.61  , 4.79  , -9.58  , 8.07  , 0.72  , -9.7 );
                        kernels[148] = compute_kernel(x,   10.0  , -5.73  , -7.41  , 7.8  , -0.35  , -8.25  , 9.93  , 4.27  , -9.75  , 8.2  , 0.8  , -9.7 );
                        kernels[149] = compute_kernel(x,   9.87  , -5.64  , -7.38  , 7.85  , -0.11  , -8.38  , 10.08  , 3.74  , -9.62  , 8.2  , 0.8  , -9.7 );
                        kernels[150] = compute_kernel(x,   11.21  , -4.82  , -7.53  , 8.55  , -0.95  , -7.69  , 10.6  , 2.25  , -10.27  , 8.85  , 2.35  , -9.75 );
                        kernels[151] = compute_kernel(x,   11.5  , -4.18  , -8.23  , 9.07  , -1.42  , -7.99  , 10.17  , 2.39  , -11.48  , 9.66  , 2.12  , -10.21 );
                        kernels[152] = compute_kernel(x,   9.19  , -1.43  , -8.04  , 7.02  , -1.29  , -8.09  , 9.21  , 3.49  , -7.36  , 5.86  , 3.97  , -9.18 );
                        kernels[153] = compute_kernel(x,   12.01  , -6.91  , -6.48  , 7.02  , -0.83  , -8.25  , 11.58  , 1.25  , -8.44  , 7.55  , 3.21  , -8.56 );
                        kernels[154] = compute_kernel(x,   12.11  , -6.94  , -6.29  , 7.02  , -1.12  , -8.18  , 11.76  , 1.42  , -7.92  , 7.55  , 3.21  , -8.56 );
                        kernels[155] = compute_kernel(x,   11.8  , -6.86  , -5.97  , 7.02  , -1.33  , -8.33  , 12.37  , 2.02  , -7.58  , 6.97  , 3.33  , -7.98 );
                        kernels[156] = compute_kernel(x,   11.19  , -6.68  , -5.61  , 7.02  , -1.58  , -8.41  , 12.39  , 2.41  , -7.59  , 6.97  , 3.33  , -7.98 );
                        kernels[157] = compute_kernel(x,   -0.16  , 0.94  , 0.31  , 7.64  , 3.15  , -8.83  , 12.36  , 5.61  , 5.13  , 1.53  , 5.19  , 2.75 );
                        kernels[158] = compute_kernel(x,   0.23  , 0.98  , 0.16  , 7.11  , 2.23  , -8.97  , 11.52  , 5.46  , 4.36  , 1.57  , 5.02  , 2.48 );
                        kernels[159] = compute_kernel(x,   0.24  , 1.12  , 0.15  , 6.97  , 2.45  , -9.18  , 11.59  , 5.85  , 4.26  , 1.65  , 5.18  , 2.43 );
                        kernels[160] = compute_kernel(x,   0.2  , 1.26  , 0.29  , 7.02  , 2.7  , -9.24  , 11.54  , 6.15  , 4.32  , 1.65  , 5.18  , 2.43 );
                        kernels[161] = compute_kernel(x,   -0.03  , 1.73  , 1.46  , 10.14  , 4.82  , -6.23  , 11.34  , 3.8  , 12.08  , 2.51  , 0.54  , 6.64 );
                        kernels[162] = compute_kernel(x,   0.23  , 2.26  , 2.46  , 9.26  , 3.2  , -5.69  , 9.09  , 3.54  , 10.77  , 3.17  , 0.24  , 6.41 );
                        kernels[163] = compute_kernel(x,   0.37  , 1.22  , 2.68  , 8.78  , 3.25  , -5.79  , 8.94  , 3.75  , 10.63  , 3.17  , 0.24  , 6.41 );
                        kernels[164] = compute_kernel(x,   -0.13  , 3.3  , 1.16  , 3.69  , 4.66  , -5.08  , 5.52  , 0.38  , 4.48  , 0.96  , 5.59  , 2.06 );
                        kernels[165] = compute_kernel(x,   -0.14  , 3.29  , 1.25  , 3.7  , 4.73  , -5.17  , 5.56  , 0.31  , 4.41  , 0.96  , 5.59  , 2.06 );
                        kernels[166] = compute_kernel(x,   -0.01  , 3.37  , 1.16  , 3.64  , 4.79  , -4.97  , 5.53  , 0.54  , 4.86  , 0.96  , 5.51  , 2.12 );
                        kernels[167] = compute_kernel(x,   0.57  , 2.01  , 1.27  , 5.33  , 3.87  , -6.41  , 5.4  , 1.84  , 7.6  , 0.68  , 0.55  , -0.14 );
                        kernels[168] = compute_kernel(x,   -0.17  , 0.68  , 0.0  , 6.38  , 4.99  , -5.95  , 6.92  , 3.45  , 6.68  , 0.11  , 0.9  , -0.84 );
                        kernels[169] = compute_kernel(x,   -0.16  , 0.6  , 0.0  , 6.21  , 5.07  , -5.81  , 6.66  , 3.32  , 6.55  , 0.11  , 0.9  , -0.84 );
                        kernels[170] = compute_kernel(x,   0.4  , 1.9  , -0.19  , 9.1  , 5.21  , -6.72  , 10.34  , 3.04  , 5.32  , 0.58  , 2.45  , -1.39 );
                        kernels[171] = compute_kernel(x,   0.34  , 1.78  , -0.15  , 9.1  , 5.04  , -6.68  , 10.4  , 3.1  , 5.19  , 0.58  , 2.45  , -1.39 );
                        kernels[172] = compute_kernel(x,   0.33  , 1.79  , -0.19  , 9.05  , 4.89  , -6.71  , 10.16  , 2.94  , 5.1  , 0.61  , 2.09  , -1.25 );
                        kernels[173] = compute_kernel(x,   0.35  , 1.9  , -0.21  , 8.94  , 4.73  , -6.68  , 9.89  , 2.88  , 5.04  , 0.61  , 2.09  , -1.25 );
                        kernels[174] = compute_kernel(x,   0.38  , 2.15  , -0.21  , 8.83  , 4.63  , -6.87  , 9.73  , 3.02  , 5.04  , 0.61  , 1.51  , -1.39 );
                        kernels[175] = compute_kernel(x,   0.46  , 2.29  , -0.16  , 8.86  , 4.57  , -7.0  , 9.72  , 3.04  , 5.34  , 0.61  , 1.51  , -1.39 );
                        kernels[176] = compute_kernel(x,   0.29  , 1.2  , 0.33  , 9.81  , 9.19  , -2.84  , 11.04  , 1.57  , 9.95  , 0.16  , 3.89  , 1.77 );
                        kernels[177] = compute_kernel(x,   0.89  , 0.68  , 0.9  , 8.86  , 7.77  , -2.97  , 9.62  , 1.4  , 9.51  , 0.58  , 3.07  , 1.23 );
                        kernels[178] = compute_kernel(x,   0.96  , 0.69  , 0.89  , 8.76  , 7.63  , -3.01  , 9.63  , 1.52  , 9.51  , 0.81  , 3.27  , 1.62 );
                        kernels[179] = compute_kernel(x,   7.73  , -5.32  , -8.53  , 0.29  , -1.88  , -0.55  , 3.12  , -2.51  , 6.0  , 9.96  , 0.77  , 7.92 );
                        kernels[180] = compute_kernel(x,   5.89  , -2.14  , -7.66  , 0.65  , -2.56  , -0.1  , 0.95  , -0.55  , 3.43  , 8.75  , -1.02  , 4.46 );
                        kernels[181] = compute_kernel(x,   3.36  , -2.41  , -6.89  , 0.91  , -2.62  , 0.27  , 0.71  , 0.25  , 2.41  , 5.08  , -4.48  , 4.97 );
                        kernels[182] = compute_kernel(x,   3.53  , -3.37  , -7.09  , 0.51  , -3.03  , 0.22  , 0.73  , 0.26  , 2.85  , 5.41  , -4.51  , 3.72 );
                        kernels[183] = compute_kernel(x,   3.79  , -4.19  , -7.41  , 0.38  , -3.34  , 0.29  , 0.76  , -0.5  , 3.4  , 5.31  , -2.94  , 3.13 );
                        kernels[184] = compute_kernel(x,   3.87  , -4.68  , -7.75  , 0.19  , -2.91  , 0.26  , 0.65  , -0.68  , 3.77  , 5.55  , -2.33  , 3.02 );
                        kernels[185] = compute_kernel(x,   2.95  , -3.02  , -6.76  , 0.13  , -2.6  , 0.05  , 0.96  , -1.57  , 4.03  , 6.51  , -2.77  , 4.26 );
                        kernels[186] = compute_kernel(x,   3.09  , -2.12  , -6.59  , 0.25  , -2.43  , 0.0  , 1.03  , -1.5  , 3.95  , 6.51  , -2.77  , 4.26 );
                        kernels[187] = compute_kernel(x,   7.57  , -2.49  , -5.55  , 1.02  , -1.56  , 1.44  , 2.86  , -2.46  , 6.15  , 13.07  , -1.6  , 10.71 );
                        kernels[188] = compute_kernel(x,   7.11  , -5.24  , 4.56  , -0.04  , -2.75  , 0.57  , 0.18  , -2.18  , 0.27  , 6.52  , 4.32  , 8.57 );
                        kernels[189] = compute_kernel(x,   7.04  , -5.55  , 4.61  , -0.07  , -2.78  , 0.75  , 0.38  , -2.2  , 0.65  , 6.05  , 4.19  , 8.24 );
                        kernels[190] = compute_kernel(x,   5.96  , -4.88  , 3.89  , 0.07  , -2.64  , 0.79  , 0.72  , -2.88  , 1.25  , 5.84  , 3.97  , 7.92 );
                        kernels[191] = compute_kernel(x,   5.89  , -4.83  , 4.05  , 0.09  , -2.6  , 0.8  , 0.71  , -2.76  , 1.18  , 5.84  , 3.97  , 7.92 );
                        kernels[192] = compute_kernel(x,   5.9  , -5.37  , 4.43  , 0.08  , -2.63  , 0.82  , 0.53  , -2.27  , 0.83  , 5.63  , 4.06  , 8.47 );
                        kernels[193] = compute_kernel(x,   10.28  , -7.09  , -6.68  , 0.96  , -2.0  , -0.29  , 1.2  , -1.84  , -0.68  , 9.38  , -7.33  , 4.55 );
                        kernels[194] = compute_kernel(x,   6.11  , -6.41  , -4.21  , 0.88  , 0.82  , -2.83  , 0.42  , -0.46  , -2.95  , 7.7  , -4.64  , 7.25 );
                        kernels[195] = compute_kernel(x,   6.55  , -7.12  , -4.19  , 0.77  , 0.84  , -2.83  , 0.07  , -0.32  , -3.18  , 8.13  , -4.97  , 6.71 );
                        kernels[196] = compute_kernel(x,   6.61  , -7.15  , -4.17  , 0.59  , 0.71  , -2.94  , 0.2  , -0.36  , -3.12  , 7.81  , -4.86  , 6.53 );
                        kernels[197] = compute_kernel(x,   6.49  , -7.2  , -4.06  , 0.5  , 0.6  , -2.92  , 0.15  , -0.34  , -3.07  , 7.81  , -4.86  , 6.53 );
                        kernels[198] = compute_kernel(x,   6.41  , -7.14  , -4.1  , 0.54  , 0.61  , -2.91  , 0.04  , -0.28  , -3.04  , 7.81  , -4.86  , 6.53 );
                        kernels[199] = compute_kernel(x,   6.4  , -6.89  , -4.03  , 0.51  , 0.49  , -2.9  , 0.13  , -0.1  , -3.01  , 7.86  , -4.65  , 6.66 );
                        kernels[200] = compute_kernel(x,   6.53  , -6.69  , -3.95  , 0.51  , 0.47  , -2.87  , 0.17  , -0.06  , -2.97  , 7.86  , -4.65  , 6.66 );
                        kernels[201] = compute_kernel(x,   6.72  , -6.46  , -3.99  , 0.5  , 0.38  , -2.9  , 0.13  , 0.04  , -2.91  , 8.13  , -4.25  , 6.68 );
                        kernels[202] = compute_kernel(x,   11.57  , -7.9  , -2.98  , 0.39  , -0.38  , 0.79  , 0.99  , 0.38  , 3.8  , 13.84  , -4.8  , 8.61 );
                        kernels[203] = compute_kernel(x,   11.02  , -7.72  , -2.99  , 0.45  , -0.34  , 0.74  , 1.06  , 0.16  , 3.61  , 13.84  , -4.8  , 8.61 );
                        kernels[204] = compute_kernel(x,   10.27  , -8.48  , 4.32  , 0.3  , -0.64  , 0.78  , 0.21  , -0.73  , 2.06  , 9.48  , 2.88  , 9.39 );
                        kernels[205] = compute_kernel(x,   9.33  , -8.1  , 4.23  , -0.12  , -0.02  , 0.76  , 0.76  , -0.56  , 2.56  , 9.39  , 2.98  , 9.67 );
                        kernels[206] = compute_kernel(x,   12.41  , -6.86  , -5.42  , 14.01  , 5.12  , -4.98  , 11.23  , 6.9  , 4.2  , 13.22  , -5.62  , 6.53 );
                        kernels[207] = compute_kernel(x,   12.46  , -6.64  , -5.47  , 14.13  , 5.03  , -4.97  , 11.18  , 7.01  , 4.1  , 13.22  , -5.62  , 6.53 );
                        kernels[208] = compute_kernel(x,   12.54  , -6.3  , -5.58  , 14.16  , 5.02  , -4.85  , 11.14  , 7.19  , 3.87  , 12.95  , -5.38  , 6.6 );
                        kernels[209] = compute_kernel(x,   12.65  , -5.96  , -5.79  , 13.97  , 5.08  , -4.83  , 11.09  , 7.17  , 3.89  , 12.95  , -5.38  , 6.6 );
                        kernels[210] = compute_kernel(x,   12.62  , -5.86  , -5.82  , 13.96  , 5.07  , -4.83  , 10.99  , 7.03  , 3.9  , 12.95  , -5.38  , 6.6 );
                        kernels[211] = compute_kernel(x,   12.52  , -7.24  , -5.76  , 14.37  , 5.53  , -5.13  , 10.92  , 7.35  , 3.83  , 13.49  , -5.76  , 6.56 );
                        kernels[212] = compute_kernel(x,   12.41  , -7.63  , -5.62  , 14.39  , 5.61  , -5.06  , 11.0  , 7.64  , 3.87  , 13.49  , -5.76  , 6.56 );
                        kernels[213] = compute_kernel(x,   12.36  , -7.71  , -5.54  , 14.33  , 5.69  , -4.99  , 11.14  , 7.72  , 3.89  , 13.64  , -5.76  , 6.56 );
                        kernels[214] = compute_kernel(x,   12.45  , -7.45  , -5.5  , 14.12  , 5.74  , -4.86  , 11.34  , 7.69  , 4.0  , 13.64  , -5.76  , 6.56 );
                        kernels[215] = compute_kernel(x,   12.69  , -5.51  , -5.79  , 14.07  , 5.46  , -5.02  , 10.77  , 7.51  , 4.13  , 13.27  , -6.11  , 6.84 );
                        kernels[216] = compute_kernel(x,   12.74  , -6.01  , -5.8  , 14.09  , 5.21  , -5.06  , 10.55  , 7.39  , 4.15  , 13.53  , -6.48  , 6.54 );
                        kernels[217] = compute_kernel(x,   12.76  , -6.98  , -5.54  , 14.21  , 5.12  , -5.24  , 10.48  , 7.29  , 4.27  , 13.53  , -6.48  , 6.54 );
                        kernels[218] = compute_kernel(x,   12.67  , -7.69  , -5.18  , 14.48  , 5.11  , -5.07  , 10.73  , 7.42  , 4.44  , 13.79  , -6.65  , 6.33 );
                        kernels[219] = compute_kernel(x,   14.72  , -2.98  , -8.83  , 16.4  , 0.69  , -6.63  , 16.26  , 5.07  , 4.15  , 19.63  , -1.34  , -2.8 );
                        kernels[220] = compute_kernel(x,   14.67  , -3.01  , -8.85  , 16.33  , 0.72  , -6.6  , 16.31  , 5.18  , 4.29  , 19.8  , -1.42  , -2.81 );
                        kernels[221] = compute_kernel(x,   14.66  , -3.01  , -8.77  , 16.3  , 0.68  , -6.63  , 16.26  , 5.15  , 4.23  , 19.8  , -1.42  , -2.81 );
                        kernels[222] = compute_kernel(x,   14.6  , -2.93  , -8.75  , 16.29  , 0.68  , -6.62  , 16.24  , 5.27  , 4.2  , 19.8  , -1.42  , -2.81 );
                        kernels[223] = compute_kernel(x,   14.58  , -2.89  , -8.74  , 16.32  , 0.66  , -6.58  , 16.17  , 5.34  , 4.2  , 19.8  , -1.42  , -2.81 );
                        kernels[224] = compute_kernel(x,   14.59  , -2.9  , -8.84  , 16.41  , 0.65  , -6.57  , 16.08  , 5.27  , 4.15  , 19.8  , -1.42  , -2.81 );
                        kernels[225] = compute_kernel(x,   14.75  , -2.11  , -8.59  , 16.41  , 0.94  , -6.42  , 15.32  , 5.09  , 4.56  , 19.78  , 2.35  , -2.75 );
                        kernels[226] = compute_kernel(x,   14.73  , -1.82  , -8.37  , 16.53  , 0.91  , -6.4  , 15.28  , 5.11  , 4.69  , 19.78  , 2.35  , -2.75 );
                        kernels[227] = compute_kernel(x,   14.27  , -2.55  , -7.7  , 16.81  , 0.84  , -6.17  , 14.92  , 5.31  , 4.97  , 18.49  , -2.38  , -2.95 );
                        kernels[228] = compute_kernel(x,   14.36  , -2.68  , -7.64  , 16.82  , 0.83  , -6.17  , 14.94  , 5.28  , 5.15  , 18.49  , -2.38  , -2.95 );
                        kernels[229] = compute_kernel(x,   13.96  , -3.74  , -3.67  , 14.3  , 1.98  , -4.07  , 11.13  , 4.51  , 2.8  , 14.6  , -4.64  , 4.84 );
                        kernels[230] = compute_kernel(x,   14.23  , -3.88  , -3.61  , 14.27  , 1.84  , -4.08  , 11.0  , 4.61  , 2.79  , 13.89  , -3.28  , 4.9 );
                        kernels[231] = compute_kernel(x,   14.54  , -4.01  , -3.82  , 14.28  , 1.48  , -4.15  , 11.0  , 4.64  , 2.98  , 13.89  , -3.28  , 4.9 );
                        kernels[232] = compute_kernel(x,   14.6  , -7.78  , -4.07  , 16.59  , 7.77  , -8.76  , 11.49  , 5.31  , 3.88  , 17.09  , -1.76  , 3.28 );
                        kernels[233] = compute_kernel(x,   12.88  , -8.5  , -2.86  , 16.12  , 6.57  , -4.44  , 11.47  , 4.65  , 3.74  , 17.09  , -1.76  , 3.28 );
                        kernels[234] = compute_kernel(x,   16.14  , -5.95  , 3.52  , 15.75  , 6.65  , -0.31  , 10.55  , -0.49  , 9.68  , 8.7  , 0.2  , 9.32 );
                        kernels[235] = compute_kernel(x,   15.77  , -6.19  , 2.97  , 15.51  , 6.23  , -1.18  , 9.98  , -0.53  , 9.94  , 8.12  , -0.87  , 9.09 );
                        kernels[236] = compute_kernel(x,   15.62  , -6.09  , 2.88  , 15.42  , 6.1  , -1.29  , 9.85  , -0.4  , 10.03  , 8.12  , -0.87  , 9.09 );
                        kernels[237] = compute_kernel(x,   16.19  , -6.01  , 3.06  , 15.64  , 6.33  , -0.82  , 9.47  , -1.01  , 9.51  , 9.04  , 0.49  , 8.94 );
                        kernels[238] = compute_kernel(x,   16.18  , -6.03  , 3.03  , 15.62  , 6.24  , -0.8  , 9.48  , -0.99  , 9.71  , 8.99  , 0.31  , 9.02 );
                        kernels[239] = compute_kernel(x,   15.81  , -5.87  , 3.23  , 15.9  , 6.03  , -0.99  , 10.38  , -0.39  , 10.01  , 8.32  , 0.42  , 8.89 );
                        kernels[240] = compute_kernel(x,   15.88  , -5.79  , 3.27  , 15.91  , 6.04  , -1.03  , 10.41  , -0.39  , 9.93  , 8.32  , 0.42  , 8.89 );
                        decisions[0] = 0.137048684061
                        + kernels[10] * 0.692680838284
                        + kernels[11]
                        + kernels[21]
                        + kernels[25]
                        + kernels[26] * 0.823189646906
                        + kernels[43] * 0.014263783823
                        + kernels[44]
                        + kernels[45]
                        + kernels[46]
                        + kernels[47]
                        + kernels[48]
                        + kernels[49]
                        + kernels[50]
                        + kernels[51]
                        + kernels[52] * 0.292223705981
                        - kernels[73]
                        - kernels[74]
                        - kernels[75]
                        + kernels[81] * -0.484949105177
                        - kernels[82]
                        - kernels[83]
                        - kernels[84]
                        - kernels[85]
                        - kernels[87]
                        - kernels[88]
                        + kernels[91] * -0.877916667463
                        - kernels[92]
                        - kernels[97]
                        + kernels[98] * -0.459492202353
                        ;
                        decisions[1] = 0.748346014227
                        + kernels[0] * 0.876124049765
                        + kernels[1]
                        + kernels[2]
                        + kernels[3]
                        + kernels[4]
                        + kernels[5]
                        + kernels[6]
                        + kernels[8] * 0.944708745499
                        + kernels[9]
                        + kernels[28]
                        + kernels[29] * 0.891696691277
                        + kernels[30]
                        + kernels[31]
                        + kernels[34] * 0.124295938147
                        + kernels[35]
                        + kernels[36]
                        + kernels[37]
                        + kernels[38]
                        + kernels[39]
                        + kernels[40]
                        + kernels[41]
                        + kernels[42]
                        - kernels[116]
                        + kernels[117] * -0.114123549031
                        - kernels[119]
                        - kernels[120]
                        - kernels[121]
                        - kernels[122]
                        - kernels[123]
                        - kernels[124]
                        - kernels[125]
                        - kernels[126]
                        - kernels[127]
                        - kernels[140]
                        + kernels[141] * -0.722701875657
                        - kernels[142]
                        - kernels[143]
                        - kernels[144]
                        - kernels[150]
                        - kernels[151]
                        - kernels[153]
                        - kernels[154]
                        - kernels[155]
                        - kernels[156]
                        ;
                        decisions[2] = 0.092012007176
                        + kernels[4] * 0.04288861984
                        + kernels[12] * 0.979151857812
                        + kernels[13]
                        + kernels[14]
                        + kernels[15]
                        + kernels[16]
                        + kernels[30] * 0.432552693858
                        - kernels[157]
                        + kernels[158] * -0.777212722752
                        - kernels[159]
                        + kernels[170] * -0.277206628122
                        - kernels[171]
                        - kernels[172]
                        + kernels[176] * -0.400173820636
                        ;
                        decisions[3] = 0.144191687804
                        + kernels[7] * 0.405456659892
                        + kernels[17] * 0.388003107322
                        + kernels[18]
                        + kernels[19] * 0.164441647486
                        + kernels[20] * 0.007483993602
                        + kernels[27] * 0.406168632267
                        + kernels[53] * 0.388039101787
                        + kernels[179] * -0.111430507793
                        + kernels[180] * -0.17950801579
                        + kernels[191] * -0.68083379964
                        + kernels[193] * -0.719932803536
                        + kernels[194] * -0.942857715872
                        + kernels[205] * -0.125030299726
                        ;
                        decisions[4] = 0.193221393527
                        + kernels[22] * 0.769351372412
                        + kernels[23]
                        + kernels[24]
                        + kernels[32]
                        + kernels[33] * 0.654869088336
                        + kernels[54] * 0.989293422541
                        + kernels[55]
                        + kernels[56]
                        + kernels[57] * 0.67026738837
                        + kernels[58]
                        - kernels[219]
                        - kernels[220]
                        - kernels[221]
                        - kernels[222]
                        - kernels[223]
                        + kernels[224] * -0.273591032557
                        - kernels[229]
                        - kernels[230]
                        + kernels[232] * -0.031106572184
                        - kernels[233]
                        + kernels[234] * -0.779083666918
                        ;
                        decisions[5] = 0.230227171356
                        + kernels[69] * 0.123321403213
                        + kernels[70]
                        + kernels[71]
                        + kernels[72]
                        + kernels[73]
                        + kernels[74]
                        + kernels[75]
                        + kernels[76]
                        + kernels[77]
                        + kernels[78]
                        + kernels[79] * 0.369304413596
                        + kernels[80]
                        + kernels[81]
                        + kernels[82]
                        + kernels[83]
                        + kernels[84]
                        + kernels[85]
                        - kernels[113]
                        - kernels[114]
                        + kernels[116] * -0.16260113048
                        - kernels[118]
                        - kernels[129]
                        + kernels[130] * -0.391411626514
                        - kernels[131]
                        - kernels[132]
                        - kernels[133]
                        + kernels[135] * -0.819687709133
                        - kernels[136]
                        - kernels[137]
                        + kernels[138] * -0.249580972991
                        - kernels[145]
                        - kernels[146]
                        - kernels[147]
                        - kernels[148]
                        + kernels[149] * -0.869344377691
                        ;
                        decisions[6] = 0.229028222258
                        + kernels[66] * 0.637983625756
                        + kernels[67]
                        + kernels[81] * 0.489102597534
                        + kernels[82]
                        + kernels[89] * 0.352045480077
                        + kernels[107] * 0.709817654199
                        - kernels[159]
                        + kernels[160] * -0.405892017958
                        + kernels[168] * -0.537274063507
                        - kernels[169]
                        - kernels[174]
                        + kernels[175] * -0.245783276102
                        ;
                        decisions[7] = 0.081403202811
                        + kernels[59] * 0.333844687511
                        + kernels[60]
                        + kernels[61]
                        + kernels[62]
                        + kernels[63] * 0.046652366392
                        + kernels[64] * 0.141838811382
                        + kernels[65]
                        + kernels[68] * 0.871368208587
                        + kernels[86] * 0.746760905605
                        + kernels[182] * -0.020713115422
                        - kernels[195]
                        - kernels[196]
                        - kernels[197]
                        + kernels[198] * -0.119751864056
                        - kernels[199]
                        - kernels[200]
                        - kernels[201]
                        ;
                        decisions[8] = -0.120721995263
                        + kernels[90]
                        + kernels[91]
                        + kernels[93]
                        + kernels[94]
                        + kernels[95]
                        + kernels[96] * 0.345561219904
                        + kernels[99] * 0.726758272121
                        + kernels[100]
                        + kernels[101]
                        + kernels[102]
                        + kernels[103]
                        + kernels[104]
                        + kernels[105]
                        + kernels[106]
                        + kernels[108]
                        - kernels[206]
                        - kernels[207]
                        - kernels[208]
                        - kernels[209]
                        - kernels[210]
                        + kernels[211] * -0.27043283987
                        - kernels[212]
                        - kernels[213]
                        - kernels[214]
                        - kernels[215]
                        - kernels[216]
                        - kernels[217]
                        - kernels[218]
                        - kernels[227]
                        + kernels[228] * -0.801886652155
                        ;
                        decisions[9] = 0.106936397263
                        + kernels[111] * 0.175577029554
                        + kernels[112]
                        + kernels[113]
                        + kernels[115] * 0.03493015101
                        + kernels[152] * 0.418930146523
                        + kernels[156] * 0.537568132915
                        + kernels[159] * -0.531776607572
                        + kernels[172] * -0.635228852429
                        - kernels[173]
                        - kernels[174]
                        ;
                        decisions[10] = 0.144475815218
                        + kernels[110] * 0.933899094131
                        + kernels[111] * 0.768110196681
                        + kernels[112] * 0.343304832363
                        + kernels[128] * 0.08899642438
                        + kernels[134] * 0.028035360058
                        + kernels[139] * 0.028922700135
                        + kernels[156] * 0.910872518834
                        + kernels[180] * -0.101087737161
                        - kernels[183]
                        + kernels[184] * -0.049728838931
                        + kernels[188] * -0.025931661328
                        + kernels[189] * -0.113024569519
                        + kernels[193] * -0.947691480776
                        + kernels[196] * -0.864676838867
                        ;
                        decisions[11] = -0.007980114202
                        + kernels[109] * 0.467003564898
                        + kernels[111] * 0.143798419662
                        + kernels[125]
                        + kernels[155]
                        + kernels[156] * 0.53712415368
                        + kernels[219] * -0.646010456569
                        - kernels[225]
                        - kernels[230]
                        + kernels[231] * -0.375133065739
                        + kernels[235] * -0.126782615933
                        ;
                        decisions[12] = -0.094636541217
                        + kernels[163] * 0.902287933287
                        + kernels[164]
                        + kernels[165]
                        + kernels[166] * 0.972812855675
                        + kernels[167] * 0.565118553154
                        - kernels[181]
                        + kernels[185] * -0.28090235978
                        - kernels[186]
                        - kernels[190]
                        - kernels[191]
                        + kernels[192] * -0.159316982336
                        ;
                        decisions[13] = -0.193349816137
                        + kernels[159] * 0.087080414708
                        + kernels[161] * 0.793505445896
                        + kernels[162] * 0.372738486269
                        + kernels[163]
                        + kernels[177] * 0.080907543788
                        + kernels[178]
                        + kernels[210] * -0.889978919315
                        + kernels[226] * -0.406872438463
                        - kernels[236]
                        - kernels[239]
                        + kernels[240] * -0.037380532882
                        ;
                        decisions[14] = -0.002756931692
                        + kernels[179] * 0.012434268711
                        + kernels[187]
                        + kernels[193] * 0.680979614909
                        + kernels[202]
                        + kernels[203] * 0.073744712414
                        + kernels[204] * 0.80605853414
                        + kernels[216] * -0.025626219348
                        + kernels[217] * -0.25754300562
                        - kernels[229]
                        + kernels[230] * -0.558699392605
                        + kernels[231] * -0.420086691961
                        + kernels[237] * -0.31126182064
                        - kernels[238]
                        ;
                        votes[decisions[0] > 0 ? 0 : 1] += 1;
                        votes[decisions[1] > 0 ? 0 : 2] += 1;
                        votes[decisions[2] > 0 ? 0 : 3] += 1;
                        votes[decisions[3] > 0 ? 0 : 4] += 1;
                        votes[decisions[4] > 0 ? 0 : 5] += 1;
                        votes[decisions[5] > 0 ? 1 : 2] += 1;
                        votes[decisions[6] > 0 ? 1 : 3] += 1;
                        votes[decisions[7] > 0 ? 1 : 4] += 1;
                        votes[decisions[8] > 0 ? 1 : 5] += 1;
                        votes[decisions[9] > 0 ? 2 : 3] += 1;
                        votes[decisions[10] > 0 ? 2 : 4] += 1;
                        votes[decisions[11] > 0 ? 2 : 5] += 1;
                        votes[decisions[12] > 0 ? 3 : 4] += 1;
                        votes[decisions[13] > 0 ? 3 : 5] += 1;
                        votes[decisions[14] > 0 ? 4 : 5] += 1;
                        int val = votes[0];
                        int idx = 0;

                        for (int i = 1; i < 6; i++) {
                            if (votes[i] > val) {
                                val = votes[i];
                                idx = i;
                            }
                        }

                        return idx;
                    }

                    /**
                    * Predict readable class name
                    */
                    const char* predictLabel(float *x) {
                        return idxToLabel(predict(x));
                    }

                    /**
                    * Convert class idx to readable name
                    */
                    const char* idxToLabel(uint8_t classIdx) {
                        switch (classIdx) {
                            case 0:
                            return "Backward";
                            case 1:
                            return "Down";
                            case 2:
                            return "Forward";
                            case 3:
                            return "Left";
                            case 4:
                            return "Right";
                            case 5:
                            return "Up";
                            default:
                            return "Houston we have a problem";
                        }
                    }

                protected:
                    /**
                    * Compute kernel between feature vector and support vector.
                    * Kernel type: rbf
                    */
                    float compute_kernel(float *x, ...) {
                        va_list w;
                        va_start(w, 12);
                        float kernel = 0.0;

                        for (uint16_t i = 0; i < 12; i++) {
                            kernel += pow(x[i] - va_arg(w, double), 2);
                        }

                        return exp(-0.001 * kernel);
                    }
                };
            }
        }
    }